tree
version=v4
num_class=1
num_tree_per_iteration=1
label_index=0
max_feature_idx=17
objective=binary sigmoid:1
feature_names=age gender birth_region insurance_region income_level education_level occupation marital_status family_members policy_type policy_term premium_amount claim_history policy_start_date_year policy_start_date_month policy_duration_days policy_end_date_year policy_end_date_month
feature_infos=[18:69] -1:1:0 -1:19:9:31:1:14:22:28:26:27:32:10:21:25:6:8:12:18:23:4:5:7:11:15:24:2:17:20:29:0:16:30:13:3 -1:19:28:22:31:27:11:14:15:1:2:9:10:16:21:23:25:26:5:12:18:4:6:13:24:29:32:8:30:0:3:20:7:17 -1:0:2:1 -1:3:1:2:0 -1:2:0:1:4:5:3 -1:1:0:2 [1:6] -1:2:3:4:0:1:7:8:5:6 -1:2:0:3:1 [7304:70800] -1:0:1 [2010:2024] [1:12] [365:7305] [2024:2044] [1:12]
tree_sizes=1276 1430 1379 1443 1518 1651 1685 1663 1621 1637 1632 1667 1695 1671 1685 1637 1700 1671 1622 1658 1693 1636 1634 1693 1644 1652 1637 1604 1709 1707 1588 1647 1669 1645 1633 1615 1603 1611 1684 1643 1664 1668 1626 1621 1621 1650 1632 1655 1668 1648 1647 1681 1677 1658 1682 1661 1681 1668 1647 1658 1652 1698 1677 1688 1669 1670 1650 1653 1654 1711 1672 1667 1689 1674 1623 1695 1626 1693 1712 1692 1682 1687 1698 1606 1692 1641 1664 1648 1686 1701 1653 1639 1663 1661 1697 1659 1719 1741 1616 1629 1665 1650 1681 1635 1626 1674 1707 1682 1603 1661 1602 1645 1663 1681 1678 1625 1665 1629 1681 1652 1667 1621 1705 1692 1714 1679 1678 1623 1616 1659 1684 1682 1688 1655 1684 1687 1657 1577 1639 1631 1642 1667 1673 1690 1648 1660 1679 1675 1642 1685 1619 1654 1592 1692 1639 1473 1660 1659 1645 1673 1646 1644 1673 1617 1669 1656 1663 1658 1665 1680 1599 1660 1680 1624 1694 1583 1617 1601 1617 1592 1662 1646 1626 1718 1646 1601 1499 1677 1571 1635 1497 1631 1608 1593 1634 1441 1591 1400 1653 1619 1574 1591 1633 1594 1650 1600 1617 1643 1579 1676 1681 1606 1618 1651 1587 1653 1619 1626 1606 1620 1561 1617 1552 1624 1583 1634 1635 1582 1612 1642 1583 1583 1627 1575 1586 1636 1619 1563 1610 1315 1557 1553 1568 1626 1480 1632 1617 1597 1564 1530 1626

Tree=0
num_leaves=12
num_cat=5
split_feature=0 7 0 7 1 0 8 1 15 7 14
split_gain=165.852 98.0658 60.4648 50.5384 10.072 9.7981 3.42396 2.95313 1.04335 0.41646 0.371586
threshold=29.500000000000004 0 60.500000000000007 1 2 21.500000000000004 4.5000000000000009 3 3652.5000000000005 4 4.5000000000000009
decision_type=2 1 2 1 1 2 2 1 2 1 2
left_child=1 5 9 7 -5 -1 -7 -4 -3 -2 -11
right_child=2 8 3 4 -6 6 -8 -9 -10 10 -12
leaf_value=1.4028083339762749 1.5392018365403839 1.2271350910761962 1.4818105216161663 1.2963194228485169 1.410365917456823 1.470026764541315 1.5362546017987535 1.537178675709161 1.2848280794583506 1.5168622794476452 1.5333636138339564
leaf_weight=3.9318368434906006 36.596327543258667 4.3855103254318237 5.29285728931427 4.8391838073730469 3.7806123495101929 4.234285831451416 3.3269388675689697 4.6879593133926392 7.5612246990203857 9.2246941328048724 17.995714783668518
leaf_count=26 242 29 35 32 25 28 22 31 50 61 119
internal_value=1.4781 1.36104 1.5115 1.4325 1.34442 1.46609 1.49889 1.50864 1.26133 1.53464 1.52812
internal_weight=105.857 23.4398 82.4173 18.6006 8.6198 11.4931 7.56122 9.98082 11.9467 63.8167 27.2204
internal_count=700 155 545 123 57 76 50 66 79 422 180
cat_boundaries=0 1 2 3 4 5
cat_threshold=2 2 2 2 2
is_linear=0
shrinkage=1


Tree=1
num_leaves=13
num_cat=6
split_feature=0 7 0 7 0 1 8 1 1 7 14 13
split_gain=142.119 71.7226 56.1093 41.7537 8.5053 7.06717 3.2458 2.83441 0.617903 0.427935 0.372938 1.14447
threshold=29.500000000000004 0 60.500000000000007 1 21.500000000000004 2 4.5000000000000009 3 4 5 4.5000000000000009 2017.5000000000002
decision_type=2 1 2 1 2 1 2 1 1 1 2 2
left_child=1 4 9 7 -1 -5 -6 -4 -3 -2 11 -11
right_child=2 8 3 5 6 -7 -8 -9 -10 10 -12 -13
leaf_value=-0.068364826361769535 0.060413915205502579 -0.20088499731811124 0.0035349140334959999 -0.1548776833221687 -0.0076417924931969569 -0.06179175345104268 0.057408929225396671 0.058349423108043821 -0.15712383014502235 0.019713862723515822 0.054433395463483747 0.058252696927343098
leaf_weight=4.1188056170940399 35.197846055030823 6.8844951242208481 5.2805223315954208 5.396878719329834 4.2557908296585083 3.9422798901796341 3.2059046924114227 4.5147152990102768 6.6870367079973221 5.0167466700077075 17.373416349291801 3.9838870614767075
leaf_count=26 242 40 35 32 28 25 22 31 39 34 119 27
internal_value=7.68981e-05 -0.103413 0.0324795 -0.0419996 -0.0112937 -0.117185 0.0200355 0.0296391 -0.180995 0.0557367 0.0491011 0.0377741
internal_weight=105.858 25.152 80.7063 19.1344 11.5805 9.33916 7.4617 9.79524 13.5715 61.5719 26.3741 9.00063
internal_count=700 155 545 123 76 57 50 66 79 422 180 61
cat_boundaries=0 1 2 3 4 5 6
cat_threshold=2 2 2 2 2 2
is_linear=0
shrinkage=0.05


Tree=2
num_leaves=12
num_cat=3
split_feature=0 0 12 1 1 14 14 14 13 14 13
split_gain=123.604 52.2206 11.8834 10.0009 3.78375 4.63493 4.20282 2.61617 0.903931 0.28062 0.00666235
threshold=29.500000000000004 60.500000000000007 0 1 2 6.5000000000000009 9.5000000000000018 5.5000000000000009 2014.5000000000002 1.5000000000000002 2011.5000000000002
decision_type=2 2 1 1 1 2 2 2 2 2 2
left_child=2 9 4 7 6 -6 -1 -3 -5 -2 -11
right_child=1 3 -4 8 5 -7 -8 -9 -10 10 -12
leaf_value=-0.10360744300257321 0.037799987604484407 -0.038819222112259522 -0.019104375214762607 0.02415959532482867 -0.11121276366501896 -0.040337523406931752 -0.17600916733171859 -0.091476078617074547 -0.0096183258996583795 0.046360869868638688 0.057809024537802192
leaf_weight=7.3373721092939377 4.8257980048656455 4.7936232089996338 4.7167124450206783 2.9208102822303772 6.4373412430286407 4.2495258450508118 3.8289424329996109 6.3460207879543304 5.5153627991676331 7.8989846259355536 46.663262858986855
leaf_count=43 34 29 28 20 37 26 21 38 36 56 332
internal_value=0.000171529 0.0316165 -0.0928613 -0.0389134 -0.108393 -0.0841287 -0.13022 -0.0698086 0.0016367 0.0549753 0.056331
internal_weight=105.534 78.9639 26.5699 19.5758 21.8532 10.6869 11.1663 11.1396 8.43617 59.388 54.5622
internal_count=700 545 155 123 127 63 64 67 56 422 388
cat_boundaries=0 1 2 3
cat_threshold=1 2 2
is_linear=0
shrinkage=0.05


Tree=3
num_leaves=13
num_cat=5
split_feature=0 7 0 7 0 1 11 1 0 7 14 13
split_gain=108.421 52.069 48.7657 34.1743 7.02649 4.23002 2.85495 2.42871 0.728732 0.47604 0.398215 1.16556
threshold=29.500000000000004 0 60.500000000000007 1 21.500000000000004 2 10621.000000000002 3 21.500000000000004 4 4.5000000000000009 2017.5000000000002
decision_type=2 1 2 1 2 1 2 1 2 1 2 2
left_child=1 4 9 7 -1 -5 -6 -4 -3 -2 11 -11
right_child=2 8 3 5 6 -7 -8 -9 -10 10 -12 -13
leaf_value=-0.05558622412029799 0.05922327585809524 -0.11837879838773678 0.0064857402110923036 -0.12727612396839674 0.048170758452786219 -0.056408048010690652 -0.011715796680464156 0.057588587196160085 -0.15669530582206515 0.017146282487251398 0.052837142423292897 0.056924342493566496
leaf_weight=4.4978720098733902 32.603886380791664 5.5241214036941537 5.4939067214727402 6.0811918973922729 4.4307611733675003 4.0975134819746017 3.2980947643518448 4.3262949585914612 10.106641158461569 4.7968601584434527 16.15320160984993 3.7025384455919266
leaf_count=26 242 28 35 32 29 25 21 31 51 34 119 27
internal_value=0.000204043 -0.0841366 0.0307505 -0.0361864 -0.00625791 -0.10006 0.0221538 0.0298567 -0.14431 0.0542401 0.0472351 0.0355164
internal_weight=105.113 27.8575 77.2554 19.9989 12.2267 10.1787 7.72886 9.8202 15.6308 57.2565 24.6526 8.4994
internal_count=700 155 545 123 76 57 50 66 79 422 180 61
cat_boundaries=0 1 2 3 4 5
cat_threshold=2 2 2 2 2
is_linear=0
shrinkage=0.05


Tree=4
num_leaves=14
num_cat=6
split_feature=0 0 7 7 8 1 1 0 15 7 14 13 1
split_gain=95.9771 45.5571 42.4579 29.3462 6.63194 3.33457 2.34086 1.63829 0.592017 0.490159 0.397929 1.1376 0.0644029
threshold=29.500000000000004 60.500000000000007 0 1 3.5000000000000004 2 3 23.500000000000004 3652.5000000000005 4 4.5000000000000009 2017.5000000000002 5
decision_type=2 2 1 1 2 1 1 2 2 1 2 2 1
left_child=2 9 4 6 -1 -5 -3 -6 -4 -2 11 -11 -10
right_child=1 3 8 5 7 -7 -8 -9 12 10 -12 -13 -14
leaf_value=-0.058101827770465846 0.058661527160097121 0.0061919231654849211 -0.14871176002523093 -0.11398796046630125 0 -0.051930823952909627 0.056942118127675495 0.044417675626986258 -0.13047178284182476 0.016493699724883525 0.052093599591286455 0.056285421982165199 -0.098958690667705074
leaf_weight=4.0165996104478845 31.304156735539436 5.4721840918064117 6.229142144322398 6.4518309533596039 4.6850303858518583 4.2331797629594803 4.1619425117969513 3.5545572638511658 4.854582816362381 4.7426838874816912 15.580556765198706 3.5620362460613251 5.5282648205757123
leaf_count=24 242 35 29 32 28 25 31 24 23 34 119 27 27
internal_value=0.000265707 0.0299622 -0.077072 -0.0337756 -0.00590956 -0.0905753 0.0289894 0.019325 -0.128926 0.0535376 0.0463972 0.0346226 -0.115274
internal_weight=104.377 75.5086 28.8682 20.3191 12.2562 10.685 9.63413 8.23959 16.612 55.1894 23.8853 8.30472 10.3828
internal_count=700 545 155 123 76 57 66 52 79 422 180 61 50
cat_boundaries=0 1 2 3 4 5 6
cat_threshold=2 2 2 2 2 2
is_linear=0
shrinkage=0.05


Tree=5
num_leaves=15
num_cat=5
split_feature=0 0 7 7 0 11 8 1 0 7 17 13 1 0
split_gain=85.5907 42.6252 35.5209 25.4433 5.95222 3.06895 2.72739 2.25685 0.514689 0.505429 0.397711 1.11073 0.335738 0.0745708
threshold=29.500000000000004 60.500000000000007 0 1 21.500000000000004 14605.500000000002 4.5000000000000009 2 21.500000000000004 3 4.5000000000000009 2017.5000000000002 4 42.500000000000007
decision_type=2 2 1 1 2 2 2 1 2 1 2 2 1 2
left_child=2 9 4 7 -1 -5 -6 -3 -4 -2 11 -11 -10 -12
right_child=1 3 8 5 6 -7 -8 -9 12 10 13 -13 -14 -15
leaf_value=-0.049593805921350598 0.058135429339199129 0.0059104439240704881 -0.096058365079590202 -0.10866140069339505 -0.002660744018070497 -0.051691129019317966 0.05673683254780737 0.056328365003885661 -0.14189775903697874 0.015860446651699906 0.041409729536641196 0.055676924391391873 -0.10596822254837722 0.057469541254404233
leaf_weight=4.6912091672420502 30.040950909256935 5.451458603143692 6.0958909541368511 5.827898770570755 4.509029433131218 5.29537732899189 3.0890606045722961 4.002068042755127 6.0959323197603226 4.6907838582992571 6.3122242391109458 3.4254724681377411 5.2066607624292356 8.7128651440143567
leaf_count=26 242 35 28 30 28 27 22 31 27 34 50 27 24 69
internal_value=0.000306545 0.0292093 -0.0711914 -0.031637 -0.00556452 -0.0826877 0.0212616 0.028144 -0.116964 0.0528605 0.045577 0.0337467 -0.126859 0.0513716
internal_weight=103.447 73.7591 29.6878 20.5768 12.2893 11.1233 7.59809 9.45353 17.3985 53.1823 23.1413 8.11626 11.3026 15.0251
internal_count=700 545 155 123 76 57 50 66 79 422 180 61 51 119
cat_boundaries=0 1 2 3 4 5
cat_threshold=2 2 2 2 2
is_linear=0
shrinkage=0.05


Tree=6
num_leaves=15
num_cat=3
split_feature=0 0 7 7 8 16 11 16 8 15 7 14 0 0
split_gain=76.7611 39.9329 30.211 22.1768 5.59385 3.92134 2.44606 2.01096 2.1113 0.538505 0.520809 0.398222 0.757309 0.082567
threshold=29.500000000000004 60.500000000000007 0 1 3.5000000000000004 2031.5000000000002 14605.500000000002 2033.5000000000002 4.5000000000000009 3652.5000000000005 2 4.5000000000000009 42.500000000000007 42.500000000000007
decision_type=2 2 1 1 2 2 2 2 2 2 1 2 2 2
left_child=2 10 4 7 -1 -6 -5 8 -3 -4 -2 12 -12 -13
right_child=1 3 9 6 5 -7 -8 -9 -10 -11 11 13 -14 -15
leaf_value=-0.051720005292786642 0.057642028760069047 -0.019564551886515392 -0.12434602582121544 -0.098484266475295804 -0.01001842175388106 0.059078298734883294 -0.048040102667141961 0.057171203546250049 0.039288724547864487 -0.09552877533596299 0.055141634464186351 0.040555769587533569 0.019603327151755293 0.056938416181329991
leaf_weight=4.1998382061719903 28.815066121518612 3.0234289392828941 6.7705244272947338 6.1110893487930298 4.7239703983068448 3.3794620186090469 5.417241245508194 3.4628169238567352 2.7922318130731583 11.261631354689596 2.7072982788085964 6.1296577453613272 5.2267163991928101 8.3641936630010587
leaf_count=24 242 21 29 30 30 22 27 25 20 50 21 50 40 69
internal_value=0.000343073 0.0284824 -0.0662005 -0.0296807 -0.00525309 0.0185571 -0.0758272 0.0273194 0.00803353 -0.107251 0.0522084 0.0447804 0.0328877 0.0506779
internal_weight=102.385 72.0497 30.3354 20.8068 12.3033 8.10343 11.5283 9.27848 5.81566 18.0322 51.2429 22.4279 7.93401 14.4939
internal_count=700 545 155 123 76 52 57 66 41 79 422 180 61 119
cat_boundaries=0 1 2 3
cat_threshold=2 2 2
is_linear=0
shrinkage=0.05


Tree=7
num_leaves=15
num_cat=5
split_feature=4 7 7 4 11 11 11 14 13 8 4 8 13 15
split_gain=69.062 26.0443 14.9527 12.752 5.46354 5.21351 5.16309 5.47925 2.66643 1.39186 2.27243 1.20681 0.752768 0.466061
threshold=0 1 2 3 15753.000000000002 10394.800000000001 14605.500000000002 8.5000000000000018 2016.5000000000002 3.5000000000000004 4 4.5000000000000009 2012.5000000000002 3652.5000000000005
decision_type=1 1 1 1 2 2 2 2 2 2 1 2 2 2
left_child=1 5 9 4 6 11 7 8 -4 10 -2 -1 -5 -3
right_child=2 13 3 12 -6 -7 -8 -9 -10 -11 -12 -13 -14 -15
leaf_value=0.0006928058976030906 0.055432608923352326 -0.11492800388213278 0.030853195680077952 0.014982363318930662 -0.077909550175954231 -0.040159866517157722 0.038783783589089751 -0.076355950092367036 -0.02879613365432104 0.055953867147323325 0.0058547571162883422 0.044669066533028989 0.044248297955188677 -0.088272346433624221
leaf_weight=3.2255800664424896 4.9143397808074933 6.9618984609842327 3.2631475105881709 3.5934235528111449 3.6777247264981261 5.6692727506160736 3.8488593846559516 3.6942664980888367 4.1024158895015717 27.025921180844307 4.801850937306881 3.4330062419176102 11.441930927336214 11.577523350715635
leaf_count=19 43 29 22 29 21 34 23 22 25 227 38 23 95 50
internal_value=0.000378812 -0.0618067 0.0277784 0.00349666 -0.0239818 -0.00495445 -0.0099151 -0.0275062 -0.0016408 0.0497924 0.0317493 0.0244312 0.0377293 -0.0991132
internal_weight=101.231 30.8673 70.3639 33.6218 18.5864 12.3279 14.9087 11.0598 7.36556 36.7421 9.71619 6.65859 15.0354 18.5394
internal_count=700 155 545 237 113 76 92 69 47 308 81 42 124 79
cat_boundaries=0 1 2 3 4 5
cat_threshold=2 2 2 4 1
is_linear=0
shrinkage=0.05


Tree=8
num_leaves=15
num_cat=6
split_feature=0 0 7 7 0 1 11 1 0 7 0 0 14 1
split_gain=62.2528 36.789 22.7529 17.8505 5.24502 2.86916 2.38373 2.27326 0.542755 0.519294 0.485856 0.959427 1.28398 0.475147
threshold=29.500000000000004 60.500000000000007 0 1 21.500000000000004 2 10621.000000000002 3 21.500000000000004 4 49.500000000000007 41.500000000000007 4.5000000000000009 5
decision_type=2 2 1 1 2 1 2 1 2 1 2 2 2 1
left_child=2 9 4 7 -1 -5 -6 -3 -4 -2 11 -11 -13 -10
right_child=1 3 8 5 6 -7 -8 -9 13 10 -12 12 -14 -15
leaf_value=-0.045059601132006015 0.056786922355145791 0.0027339235547158259 -0.074183285914031907 -0.088160601495958751 0.046273068331567829 -0.034952538375383334 -0.0087499958634506617 0.054977059418950848 -0.11458797711168214 0.049904811691516809 0.05666956609212026 0 0.041705597351627502 -0.082504947273140214
leaf_weight=4.839205339550972 26.590562559664249 5.22225621342659 6.6397449225187328 7.2086887955665588 4.123420313000679 4.7943094372749329 3.3978496193885803 3.6358158364892006 6.5970878005027771 7.5142529755830783 6.7783890813589087 3.3776891306042671 3.7445206195116043 5.6928702890872938
leaf_count=26 242 35 28 32 29 25 21 31 27 64 56 27 33 24
internal_value=0.000402933 0.0270197 -0.057918 -0.0281699 -0.00463338 -0.0677854 0.0209708 0.0251097 -0.0922412 0.0511154 0.0436094 0.0368783 0.0219417 -0.100916
internal_weight=100.157 68.8665 31.2902 20.8611 12.3605 12.003 7.52127 8.85807 18.9297 48.0054 21.4149 14.6365 7.12221 12.29
internal_count=700 545 155 123 76 57 50 66 79 422 180 124 60 51
cat_boundaries=0 1 2 3 4 5 6
cat_threshold=2 2 2 2 2 2
is_linear=0
shrinkage=0.05


Tree=9
num_leaves=15
num_cat=5
split_feature=0 0 7 7 0 1 11 1 7 15 0 0 14 14
split_gain=56.4326 34.5163 20.0485 15.7909 4.67824 2.46171 2.24429 2.18581 0.539913 0.520774 0.48878 0.940229 1.21935 0.201875
threshold=29.500000000000004 60.500000000000007 0 1 21.500000000000004 2 10621.000000000002 3 4 3652.5000000000005 49.500000000000007 41.500000000000007 4.5000000000000009 6.5000000000000009
decision_type=2 2 1 1 2 1 2 1 1 2 2 2 2 2
left_child=2 8 4 7 -1 -5 -6 -3 -2 -4 11 -10 -13 -11
right_child=1 3 9 5 6 -7 -8 -9 10 13 -12 12 -14 -15
leaf_value=-0.041904342422181828 0.056374137924383977 0.0026043421785973825 -0.10150514965610774 -0.081666233091435725 0.045370091307761151 -0.032691475558657 -0.008282615563923389 0.054452568146613825 0.049232791563228517 -0.087440993363402206 0.056157925344299559 0 0.040922793908202651 -0.062954828836792695
leaf_weight=4.9480014443397522 25.474953405559063 5.2132011353969574 7.1694827824831018 7.395661860704422 4.0003460571169853 4.8743784725666046 3.4152896553277969 3.4919041842222214 7.2442123293876666 6.0271809697151184 6.5059478655457488 3.3776891306042671 3.6301765963435173 6.0169288814067841
leaf_count=26 242 35 29 32 29 25 21 31 64 25 56 27 33 25
internal_value=0.000418645 0.0263677 -0.0545617 -0.0265875 -0.00438202 -0.0630364 0.0202135 0.0243524 0.0505061 -0.0864027 0.0428291 0.0360474 0.0212129 -0.0762392
internal_weight=98.7854 67.2081 31.5772 20.9751 12.3636 12.27 7.41564 8.70511 46.233 19.2136 20.758 14.2521 7.00787 12.0441
internal_count=700 545 155 123 76 57 50 66 422 79 180 124 60 50
cat_boundaries=0 1 2 3 4 5
cat_threshold=2 2 2 2 2
is_linear=0
shrinkage=0.05


Tree=10
num_leaves=15
num_cat=6
split_feature=0 0 7 7 8 16 1 1 7 0 16 4 0 14
split_gain=51.2821 32.4088 17.7993 14.0286 4.48919 3.67654 2.13906 2.10179 0.560753 0.532907 0.922999 0.492074 0.921098 1.15741
threshold=29.500000000000004 60.500000000000007 0 1 3.5000000000000004 2031.5000000000002 2 3 4 21.500000000000004 2031.5000000000002 5 41.500000000000007 4.5000000000000009
decision_type=2 2 1 1 2 2 1 1 1 2 2 1 2 2
left_child=2 8 4 7 -1 -6 -5 -3 -2 -4 -11 -10 -13 -14
right_child=1 3 9 6 5 -7 -8 -9 11 10 -12 12 13 -15
leaf_value=-0.044342216354611164 0.055985024107723574 0.0024807087244471775 -0.064480179528656797 -0.076038683585712391 -0.0094078988712757161 0.058397369845327812 -0.030622236706421981 0.053949069251733241 0.055671854341786786 -0.10366440036207723 -0.067975259136069818 0.048573124066161225 0 0.040146923820621121
leaf_weight=4.4146953523159027 24.397361241281033 5.2045792639255524 6.8302436918020275 7.5490499585866928 4.7252591997385025 3.2207293882966042 4.9483463019132614 3.352728433907032 6.2421655356884003 7.2069028168916685 5.3769547194242477 6.9834553673863429 3.3776891306042671 3.5200633555650711
leaf_count=24 242 35 28 32 30 22 25 31 56 29 22 64 27 33
internal_value=0.000431179 0.0257373 -0.0515546 -0.0251379 -0.00414626 0.0178382 -0.0588388 0.0236136 0.0499117 -0.0813067 -0.0894651 0.0420607 0.035228 0.0205014
internal_weight=97.3502 65.5754 31.7748 21.0547 12.3607 7.94599 12.4974 8.55731 44.5207 19.4141 12.5839 20.1234 13.8812 6.89775
internal_count=700 545 155 123 76 52 57 66 422 79 51 180 124 60
cat_boundaries=0 1 2 3 4 5 6
cat_threshold=2 2 2 2 2 4
is_linear=0
shrinkage=0.05


Tree=11
num_leaves=15
num_cat=3
split_feature=0 0 7 8 11 17 8 16 7 15 0 0 0 1
split_gain=46.688 30.4497 15.9318 13.0319 4.19233 2.71536 1.06673 0.840318 0.581769 0.508077 0.495627 0.90195 1.12575 0.28519
threshold=29.500000000000004 60.500000000000007 0 3.5000000000000004 10394.800000000001 6.5000000000000009 4.5000000000000009 2030.5000000000002 1 3652.5000000000005 49.500000000000007 41.500000000000007 45.500000000000007 2
decision_type=2 2 1 2 2 2 2 2 1 2 2 2 2 1
left_child=2 8 4 5 6 -3 -1 -5 -2 -4 11 -10 -13 -11
right_child=1 3 9 7 -6 -7 -8 -9 10 13 -12 12 -14 -15
leaf_value=0.0011254580979620514 0.055617756074330754 -0.031687989684551117 -0.091187875028545251 0.0040298140738045211 -0.034366698080152219 -0.079871673212961472 0.043215115423337183 0.03873272206064203 0.047923994377549919 -0.079386030422880213 0.055209088876306545 0 0.039955122975081289 -0.055140013822055724
leaf_weight=3.2167079597711563 23.357500053942204 7.0133288502693194 7.2286736369133004 3.2924580127000791 5.9142923429608345 6.0042587891221046 3.2364463284611702 4.7944061160087585 6.7318968176841754 5.7078588604927063 5.9870599955320349 3.4352137967944145 3.3565733954310417 6.599031388759613
leaf_count=19 242 35 29 21 34 30 23 37 64 23 56 30 30 27
internal_value=0.000441818 0.0251263 -0.0488238 -0.0238025 -0.00391208 -0.054733 0.023335 0.0254364 0.0493302 -0.0768368 0.0413027 0.0344192 0.0198069 -0.0673374
internal_weight=95.8757 63.9727 31.903 21.1045 12.3674 13.0176 6.45315 8.08686 42.8682 19.5356 19.5107 13.5237 6.79179 12.3069
internal_count=700 545 155 123 76 65 42 58 422 79 180 124 60 50
cat_boundaries=0 1 2 3
cat_threshold=2 2 2
is_linear=0
shrinkage=0.05


Tree=12
num_leaves=15
num_cat=0
split_feature=0 0 8 8 11 13 14 14 16 16 14 11 11 0
split_gain=42.5331 28.6268 11.5969 7.97245 3.19499 3.42256 2.31169 0.998614 1.02248 0.792718 0.48763 0.346068 1.47389 0.0616124
threshold=29.500000000000004 60.500000000000007 3.5000000000000004 3.5000000000000004 10067.500000000002 2017.5000000000002 6.5000000000000009 3.5000000000000004 2029.5000000000002 2030.5000000000002 1.5000000000000002 11487.000000000002 10958.000000000002 33.500000000000007
decision_type=2 2 2 2 2 2 2 2 2 2 2 2 2 2
left_child=3 10 6 7 5 -5 -3 -1 -9 -4 -2 12 13 -12
right_child=1 2 9 4 -6 -7 -8 8 -10 -11 11 -13 -14 -15
leaf_value=-0.044417691030093 0.02643973586592124 -0.02977624522970751 0.0038425165565672084 0.046746231865929959 -0.042751073146327041 -0.023696750765239888 -0.073987456286937245 -0.0540406284806281 -0.086641380120028172 0.037781477662061434 0.034255502191802206 0.055657575321418996 0.011069967501393753 0.055028499323235225
leaf_weight=6.0808094143867555 3.5349356010556212 7.094677463173868 3.2853567823767653 3.1886507272720319 4.9124777838587761 3.4464000388979912 6.1613519564270973 6.3148492127656928 8.0327557027339918 4.6749463155865669 2.6820609197020522 22.869315922260284 3.410219006240367 8.7820077836513502
leaf_count=26 34 35 21 22 26 19 30 27 35 37 28 237 33 90
internal_value=0.000454036 0.0244967 -0.0224747 -0.0463097 -0.0124142 0.00960555 -0.0510999 -0.0650724 -0.0731122 0.024616 0.0487558 0.0506384 0.0422673 0.0509392
internal_weight=94.4708 62.4949 21.2163 31.9759 11.5475 6.63505 13.256 20.4284 14.3476 7.9603 41.2785 37.7436 14.8743 11.4641
internal_count=700 545 123 155 67 41 65 88 62 58 422 388 151 118
is_linear=0
shrinkage=0.05


Tree=13
num_leaves=15
num_cat=4
split_feature=0 0 7 7 0 16 16 0 0 7 0 16 4 0
split_gain=38.6778 26.9256 13.9597 10.7821 4.01182 1.95741 1.29857 1.07412 0.752775 0.646917 0.632611 0.93886 0.522362 0.916189
threshold=29.500000000000004 60.500000000000007 0 1 21.500000000000004 2033.5000000000002 2031.5000000000002 66.500000000000014 64.500000000000014 2 21.500000000000004 2031.5000000000002 3 41.500000000000007
decision_type=2 2 1 1 2 2 2 2 2 1 2 2 1 2
left_child=2 9 4 5 -1 8 -6 -5 -3 -2 -4 -12 -11 -14
right_child=1 3 10 7 6 -7 -8 -9 -10 12 11 -13 13 -15
leaf_value=-0.036075722454485808 0.054979036321186871 -0.014740503768826586 -0.053538468447687698 -0.061797992343827192 0.00069556253275419736 0.054780193409210892 0.04376400896795582 -0.028701279311928798 0.021605226728181673 0.054354400421214005 -0.092091183263209475 -0.0577255209867268 0.046663329371934667 0.01769619561944066
leaf_weight=5.1325190812349319 21.495049729943275 2.5739219188690186 6.9596579223871258 7.9686277359724045 4.11162319034338 2.9383937567472458 3.3046934977173805 4.9990350008010864 2.8241948112845421 5.5064653158187866 7.1879672557115537 5.4685323387384415 6.2596352472901362 6.4953682944178581
leaf_count=26 242 19 28 35 27 25 23 22 22 56 29 22 64 60
internal_value=0.000464149 0.0238833 -0.043775 -0.0212467 -0.00212149 0.0225457 0.0208789 -0.0497391 0.00341261 0.048185 -0.0700221 -0.0782036 0.0396597 0.0325534
internal_weight=93.2257 61.0607 32.165 21.3042 12.5488 8.33651 7.41632 12.9677 5.39812 39.7565 19.6162 12.6565 18.2615 12.755
internal_count=700 545 155 123 76 66 50 57 41 422 79 51 180 124
cat_boundaries=0 1 2 3 4
cat_threshold=2 2 2 4
is_linear=0
shrinkage=0.05


Tree=14
num_leaves=15
num_cat=3
split_feature=0 0 7 7 0 11 16 11 0 7 15 0 0 14
split_gain=35.3473 25.3376 12.6769 9.65412 3.61068 2.07868 1.88012 1.77851 0.687826 0.669379 0.61884 0.526726 0.896033 1.12777
threshold=29.500000000000004 60.500000000000007 0 1 21.500000000000004 14605.500000000002 2033.5000000000002 10621.000000000002 64.500000000000014 2 3652.5000000000005 49.500000000000007 41.500000000000007 4.5000000000000009
decision_type=2 2 1 1 2 2 2 2 2 1 2 2 2 2
left_child=2 9 4 6 -1 -5 8 -6 -3 -2 -4 12 -11 -14
right_child=1 3 10 5 7 -7 -8 -9 -10 11 -12 -13 13 -15
leaf_value=-0.033764967506230995 0.054665925315705792 -0.013897746026458994 -0.081386493893101611 -0.065781220277004684 0.043854339011344862 -0.023702164022324168 0.054216782151348168 -0.0038817949771293193 0.020865523144771712 0.046036258566544225 -0.05734151172272603 0.05394938503136068 -0.0025210367733601849 0.037723840038857537
leaf_weight=5.2142369598150253 20.561433359980583 2.5989057347178459 7.1329178065061578 6.9632069170475006 3.7517029121518135 6.1585375815629959 2.8244113251566887 3.5727781504392624 2.7827195823192596 6.0347393304109591 12.44731679558754 5.2769730761647216 3.2132279947400093 3.1964953988790512
leaf_count=26 242 19 29 30 29 27 25 21 22 64 50 56 27 33
internal_value=0.0004714 0.0232992 -0.0416811 -0.0201502 -0.00196049 -0.0467387 0.0218146 0.0201572 0.00321816 0.047625 -0.066724 0.0389143 0.031761 0.017052
internal_weight=91.7296 59.6107 32.119 21.3278 12.5387 13.1217 8.20604 7.32448 5.38163 38.2829 19.5802 17.7214 12.4445 6.40972
internal_count=700 545 155 123 76 57 66 50 41 422 79 180 124 60
cat_boundaries=0 1 2 3
cat_threshold=2 2 2
is_linear=0
shrinkage=0.05


Tree=15
num_leaves=15
num_cat=4
split_feature=0 0 7 8 14 8 1 1 7 14 11 11 0 16
split_gain=32.3432 23.8537 11.5134 9.02837 3.48671 4.94725 2.44612 0.806993 0.690913 1.14146 0.989443 2.03495 0.643429 0.923841
threshold=29.500000000000004 60.500000000000007 0 3.5000000000000004 4.5000000000000009 4.5000000000000009 1 2 3 1.5000000000000002 11540.000000000002 10135.500000000002 21.500000000000004 2031.5000000000002
decision_type=2 2 1 2 2 2 1 1 1 2 2 2 2 2
left_child=2 8 4 6 -1 -6 -3 -5 -2 -10 11 -11 -4 -14
right_child=1 3 12 7 5 -7 -8 -9 9 10 -12 -13 13 -15
leaf_value=0.043476817383216931 0.054368903619073664 -0.060113533783036771 -0.047612472748724398 0.0078904310556316484 -0.043950106823431312 0.030302534774833675 -0.014665984030930976 0.042431121766744524 0 0.052980992539660134 0.054579953609611702 0 -0.085507357980607171 -0.051952576764913341
leaf_weight=3.0360529869794854 19.663321889936924 8.4952850788831711 6.9703014642000225 4.4077801704406738 6.1331980898976308 3.3413695767521858 5.1527998223900804 3.2746902629733077 1.737756803631785 3.4690867736935607 8.4972241371870023 3.4924303144216537 7.0572833269834501 5.4807020723819733
leaf_count=20 242 38 28 29 33 23 27 29 16 37 92 35 29 22
internal_value=0.000476682 0.02273 -0.039755 -0.0191302 -0.00184939 -0.0171984 -0.0435501 0.0236121 0.0470757 0.038181 0.0424738 0.0264252 -0.0636755 -0.0717624
internal_weight=90.2093 58.1904 32.0189 21.3306 12.5106 9.47457 13.6481 7.68247 36.8598 17.1965 15.4587 6.96152 19.5083 12.538
internal_count=700 545 155 123 76 56 65 58 422 180 164 72 79 51
cat_boundaries=0 1 2 3 4
cat_threshold=2 2 2 2
is_linear=0
shrinkage=0.05


Tree=16
num_leaves=15
num_cat=2
split_feature=0 0 8 12 8 16 0 11 1 11 8 14 13 13
split_gain=29.6075 22.4549 8.1199 7.01442 5.75804 2.17864 1.40618 2.71661 0.767431 0.714702 0.56513 0.924792 2.04523 0.143981
threshold=29.500000000000004 60.500000000000007 3.5000000000000004 0 4.5000000000000009 2033.5000000000002 25.500000000000004 8809.0000000000018 1 10598.200000000003 2.5000000000000004 4.5000000000000009 2017.5000000000002 2020.5000000000002
decision_type=2 2 2 1 2 2 2 2 1 2 2 2 2 2
left_child=3 10 5 4 6 -3 7 -1 -4 -9 11 12 -2 -13
right_child=1 2 8 -5 -6 -7 -8 9 -10 -11 -12 13 -14 -15
leaf_value=-0.080180586105524643 -0.0081766066230307948 -0.060886935069370852 0.0075377719296450436 0.012491784510247156 0.00051335932692896818 -0.019373104917021593 -0.079364933613093117 -0.015007495411413963 0.041543915690811187 -0.044962103458272451 0.05213337432529376 0.053560808407819786 0.051892476169284801 0.027859895593232639
leaf_weight=4.8343569040298524 2.962377689778803 6.9714085236191767 4.388483926653862 5.5036543607711819 4.6927452236413947 6.8016281500458717 7.1057364344596854 4.3583318144083005 3.181903474032878 5.3946786373853683 22.354351930320263 5.6791551560163498 2.3961842730641365 2.099970169365406
leaf_count=21 27 34 29 28 30 31 31 21 29 24 281 65 25 24
internal_value=0.000482212 0.0221629 -0.0181448 -0.0379507 -0.0486684 -0.0410337 -0.0594905 -0.0489945 0.022838 -0.0323719 0.0465256 0.0362843 0.018227 0.0476991
internal_weight=88.725 56.8355 21.3434 31.8895 26.3858 13.773 21.6931 14.5874 7.57039 9.75301 35.492 13.1377 5.35856 7.77913
internal_count=700 545 123 155 127 65 97 66 58 45 422 141 52 89
cat_boundaries=0 1 2
cat_threshold=1 2
is_linear=0
shrinkage=0.05


Tree=17
num_leaves=15
num_cat=3
split_feature=0 0 7 7 8 0 11 11 7 14 11 11 15 14
split_gain=27.0409 21.1465 10.3057 7.84427 4.68332 3.14054 1.89824 1.59173 0.742463 1.0921 1.03352 2.01323 0.673374 0.3443
threshold=29.500000000000004 60.500000000000007 0 1 3.5000000000000004 21.500000000000004 14605.500000000002 10621.000000000002 2 1.5000000000000002 11540.000000000002 10903.000000000002 3652.5000000000005 6.5000000000000009
decision_type=2 2 1 1 2 2 2 2 1 2 2 2 2 2
left_child=2 8 5 4 -3 -1 -5 -7 -2 -10 11 -11 -4 -14
right_child=1 3 12 6 -6 7 -8 -9 9 10 -12 -13 13 -15
leaf_value=-0.029737570989310305 0.053827892094227253 -0.032906838036084178 -0.073934691691298488 -0.05868230531624391 0.047269322907254753 0.043248342825106235 -0.018985717705032157 -0.001911665101942777 0 0.042609930338472352 0.053961679928674872 -0.015281475036430082 -0.060229006546561076 -0.037692773782712727
leaf_weight=5.3376736789941788 17.999912574887276 2.5414494872093201 6.8840892165899286 7.0846040546894073 5.5036115124821663 3.6488452851772308 6.2519625574350357 3.6362136602401733 1.7158458679914499 4.6221674755215627 7.8588348254561424 1.9848220795392988 6.2032527923583984 6.1843847930431366
leaf_count=26 242 17 29 30 49 29 27 21 16 53 92 19 25 25
internal_value=0.00048438 0.0215943 -0.0360874 -0.017189 0.0212346 -0.000527736 -0.0407251 0.0203098 0.0459796 0.0366655 0.0411116 0.0245046 -0.0589974 -0.0497704
internal_weight=87.4577 55.5632 31.8945 21.3816 8.04506 12.6227 13.3366 7.28506 34.1816 16.1817 14.4658 6.60699 19.2717 12.3876
internal_count=700 545 155 123 66 76 57 50 422 180 164 72 79 50
cat_boundaries=0 1 2 3
cat_threshold=2 2 2
is_linear=0
shrinkage=0.05


Tree=18
num_leaves=15
num_cat=6
split_feature=0 0 7 7 16 0 1 1 7 14 0 0 15 1
split_gain=24.8064 19.928 9.43486 7.0609 3.03188 6.64451 1.92384 1.83124 0.765282 1.05362 0.708424 1.1456 0.666068 0.4561
threshold=29.500000000000004 60.500000000000007 0 1 2027.5000000000002 21.500000000000004 2 3 4 1.5000000000000002 45.500000000000007 41.500000000000007 3652.5000000000005 5
decision_type=2 2 1 1 2 2 1 1 1 2 2 2 2 1
left_child=2 8 4 6 -1 -6 -3 -5 -2 -10 11 -11 -4 -14
right_child=1 3 12 7 5 -7 -8 -9 9 10 -12 -13 13 -15
leaf_value=0.036867551975803763 0.05357182042075264 0.052492545302568722 -0.0714927006639927 -0.054010224980829372 -0.064801180719704532 0.020767578603178859 0.00068882985723328247 -0.014665084966763182 0 0.042455302371164801 0.053507969540775226 6.7184454975792771e-05 -0.059939450909567087 -0.035665343375655939
leaf_weight=3.6549178659915933 17.202288299798965 2.8690489456057531 6.7695786207914361 7.9216378629207611 3.9218010902404767 5.005343072116375 5.0409564077854174 5.5003560930490512 1.7158458679914463 4.7380492985248548 6.5220445841550827 2.734682522714138 5.619927778840065 6.7240860313177109
leaf_count=22 242 31 29 32 19 35 35 25 16 58 79 27 23 27
internal_value=0.000470575 0.0210508 -0.0345492 -0.0163767 -0.000485506 -0.0165713 0.0205236 -0.038484 0.0454364 0.0359299 0.0404351 0.0278092 -0.0565931 -0.0475114
internal_weight=85.9406 54.2449 31.6957 21.332 12.5821 8.92714 7.91001 13.422 32.9129 15.7106 13.9948 7.47273 19.1136 12.344
internal_count=700 545 155 123 76 54 66 57 422 180 164 85 79 50
cat_boundaries=0 1 2 3 4 5 6
cat_threshold=2 2 1 2 2 2
is_linear=0
shrinkage=0.05


Tree=19
num_leaves=15
num_cat=4
split_feature=0 0 7 7 8 8 16 1 7 14 0 0 0 16
split_gain=22.7761 18.7685 8.6752 6.39272 4.40744 2.87044 3.23439 1.65194 0.786713 1.01659 0.71061 1.09613 0.703785 0.947085
threshold=29.500000000000004 60.500000000000007 0 1 3.5000000000000004 3.5000000000000004 2031.5000000000002 2 3 1.5000000000000002 45.500000000000007 41.500000000000007 21.500000000000004 2031.5000000000002
decision_type=2 2 1 1 2 2 2 1 1 2 2 2 2 2
left_child=2 8 5 4 -3 -1 -7 -5 -2 -10 11 -11 -4 -14
right_child=1 3 12 7 -6 6 -8 -9 9 10 -12 -13 13 -15
leaf_value=-0.030871248185991313 0.053327562284784427 -0.031924651346510208 -0.038461690835055212 -0.051248348974374594 0.046293751052292997 -0.0068780465376065752 0.057908289189215201 -0.013876585166411978 0 0.041818620211900949 0.053177664370302628 6.394842159928984e-05 -0.076738797581384091 -0.043368067868152477
leaf_weight=4.7870153188705444 16.436826676130295 2.5605302900075912 6.8759966343641308 7.9360823333263397 5.230753131210804 4.7635228857398033 2.9943694844841957 5.5272247493267077 1.7158458679914499 4.5753464773297292 6.2421290650963783 2.7345422804355621 6.6419856846332532 5.4097051024436951
leaf_count=24 242 17 28 32 49 30 22 25 16 58 79 27 29 22
internal_value=0.000474877 0.0205411 -0.0330906 -0.0155975 0.0198756 -0.000405709 0.0179104 -0.0364898 0.0448983 0.0352104 0.0397712 0.0270851 -0.0543748 -0.0626511
internal_weight=84.4319 52.9593 31.4726 21.2546 7.79128 12.5449 7.75789 13.4633 31.7047 15.2679 13.552 7.30989 18.9277 12.0517
internal_count=700 545 155 123 66 76 52 57 422 180 164 85 79 51
cat_boundaries=0 1 2 3 4
cat_threshold=2 2 2 2
is_linear=0
shrinkage=0.05


Tree=20
num_leaves=15
num_cat=2
split_feature=0 0 12 8 8 14 0 11 16 1 8 14 13 13
split_gain=20.9242 17.694 6.31438 5.53993 4.50729 2.1131 1.32413 2.34399 3.73136 0.730176 0.62486 0.930465 2.01046 0.203181
threshold=29.500000000000004 60.500000000000007 0 3.5000000000000004 4.5000000000000009 6.5000000000000009 25.500000000000004 8809.0000000000018 2031.5000000000002 1 2.5000000000000004 4.5000000000000009 2017.5000000000002 2020.5000000000002
decision_type=2 2 1 2 2 2 2 2 2 1 2 2 2 2
left_child=2 10 4 5 6 -3 7 -1 -9 -5 11 12 -2 -13
right_child=1 3 -4 9 -6 -7 -8 8 -10 -11 -12 13 -14 -15
leaf_value=-0.071021972657887983 -0.011200475156942809 -0.013992063486536156 0.016367006119073001 0.0055499926753573691 0.0019213466290389598 -0.054113506625229527 -0.071275000051379309 0.003945804830295596 -0.056812638106259306 0.039842736131901368 0.050755520468414965 0.052472211812823938 0.050771319380503166 0.023725100194193521
leaf_weight=4.7228895872831407 2.8379498571157473 7.6068633645772952 5.4335411861538914 4.1735767275094986 4.5678914934396735 6.488902360200882 6.8141388893127433 4.820980027317999 4.8761014044284821 2.8866481631994239 18.790796935558319 4.9093159139156342 2.1521701738238335 1.855079837143421
leaf_count=21 27 35 28 29 30 30 31 23 22 29 281 65 25 24
internal_value=0.0004664 0.0200346 -0.031724 -0.0148979 -0.0420684 -0.033065 -0.0517305 -0.0417232 -0.0263638 0.0206299 0.0443619 0.0333775 0.0150172 0.0457774
internal_weight=82.9368 51.7013 31.2355 21.156 25.802 14.0958 21.2341 14.42 9.69708 7.06022 30.5453 11.7545 4.99012 6.7644
internal_count=700 545 155 123 127 65 97 66 45 58 422 141 52 89
cat_boundaries=0 1 2
cat_threshold=1 2
is_linear=0
shrinkage=0.05


Tree=21
num_leaves=15
num_cat=7
split_feature=6 4 4 12 9 0 14 1 14 4 0 11 11 16
split_gain=19.8716 10.9085 9.77846 9.11964 6.58061 4.76023 4.18239 2.72801 3.09971 1.9077 3.18095 1.80035 1.22538 1.27564
threshold=0 1 2 3 4 60.500000000000007 11.500000000000002 5 6.5000000000000009 6 41.500000000000007 12789.000000000002 11789.500000000002 2032.5000000000002
decision_type=1 1 1 1 1 2 2 1 2 1 2 2 2 2
left_child=1 -1 -2 4 6 9 12 8 -6 10 -4 -5 -3 -14
right_child=2 3 5 11 7 -7 -8 -9 -10 -11 -12 -13 13 -15
leaf_value=0.053742870143631605 -0.093168714780590828 0.01140876682260128 0.029384223593521466 0.076616324007327999 -0.016404259783834883 -0.055703392573389993 -0.034927970473459559 -0.01000438926324574 -0.0738679410625631 0.048587242462334812 -0.051871346545231879 0.024265047180299298 0.015730855646546384 0.054404734181190642
leaf_weight=15.168379038572311 8.0458477437496185 6.5674031600356164 2.3389899954199791 4.2354629337787619 4.6292243599891663 5.2929944768548012 2.7853215187788001 9.2104384265840054 5.4906231239438057 1.8907336480915544 2.2275353372097015 3.4249120652675629 3.960257161408661 6.4538862183690071
leaf_count=214 38 41 34 31 34 30 18 65 30 29 27 28 29 52
internal_value=0.000471866 0.0146516 -0.0338401 0.00490271 -0.00479551 -0.0209066 0.0134169 -0.0201728 -0.0484887 0.00726823 -0.00944269 0.0544689 0.0296519 0.040463
internal_weight=81.722 61.9259 19.7961 46.7575 39.0972 11.7503 19.7669 19.3303 10.1198 6.45726 4.56653 7.66037 16.9815 10.4141
internal_count=700 542 158 328 269 120 140 129 64 90 61 59 122 81
cat_boundaries=0 1 2 3 4 5 6 7
cat_threshold=7 1 2 1 156 2 1
is_linear=0
shrinkage=0.05


Tree=22
num_leaves=15
num_cat=7
split_feature=6 7 4 4 7 12 11 8 15 1 14 0 16 11
split_gain=18.0078 11.2095 11.9725 8.79244 10.4281 8.1328 10.3059 3.97807 3.4015 2.40769 3.19525 1.85225 2.97517 1.39968
threshold=0 1 2 3 4 5 11827.000000000002 3.5000000000000004 5479.0000000000009 6 5.5000000000000009 60.500000000000007 2032.5000000000002 16009.700000000003
decision_type=1 1 1 1 1 1 2 2 2 1 2 2 2 2
left_child=1 7 -3 -2 13 6 -4 9 -8 10 -1 12 -6 -5
right_child=3 2 5 4 11 -7 8 -9 -10 -11 -12 -13 -14 -15
leaf_value=0.034262855673527402 -0.088189500306586011 0.053592226813614474 -0.063752129187773857 0.051832965611203874 -0.071535485233648902 0.047679326331790749 -0.030212411251610574 0.053765170916337673 0.024265427476778401 0.045271358794555287 -0.042248010478376972 -0.086355284495976972 0.018335540711695238 -0.0022149101258137384
leaf_weight=2.2750971652567387 8.0797642022371292 7.3377187997102737 11.155631579458715 3.4221487827599049 1.8636616095900538 3.8727311380207565 4.572282597422598 18.296771213412285 7.245899997651577 3.1927619166672248 3.031976580619812 3.4143305420875549 1.543699901551008 1.5433331318199632
leaf_count=23 38 93 51 49 21 22 28 223 46 30 26 14 20 16
internal_value=0.000475765 0.0141356 -0.00240515 -0.0320774 -0.01976 -0.018038 -0.0294914 0.0406085 0.00269256 0.0114102 -0.00849668 -0.0597851 -0.0300321 0.0343351
internal_weight=80.8478 60.9809 34.1843 19.8669 11.7872 26.8465 22.9738 26.7966 11.8182 8.49984 5.30707 6.82169 3.40736 4.96548
internal_count=700 542 240 158 120 147 125 302 74 79 49 55 41 65
cat_boundaries=0 1 2 3 4 5 6 7
cat_threshold=7 2 1 2 2 1 2
is_linear=0
shrinkage=0.05


Tree=23
num_leaves=15
num_cat=3
split_feature=0 0 7 7 8 11 11 13 7 14 11 11 0 16
split_gain=16.2298 15.6731 7.109 5.05201 3.79384 2.64693 1.84618 1.04345 0.876252 0.971528 1.20996 2.05865 0.731832 0.996574
threshold=29.500000000000004 60.500000000000007 0 1 3.5000000000000004 10394.800000000001 14605.500000000002 2017.5000000000002 2 1.5000000000000002 11540.000000000002 10135.500000000002 21.500000000000004 2031.5000000000002
decision_type=2 2 1 1 2 2 2 2 1 2 2 2 2 2
left_child=2 8 5 4 -3 7 -5 -1 -2 -10 11 -11 -4 -14
right_child=1 3 12 6 -6 -7 -8 -9 9 10 -12 -13 13 -15
leaf_value=0.043678523400688597 0.052577822079528561 -0.028036188834096566 -0.032035252415843068 -0.049965908988035122 0.044729722919803025 -0.021476091001485342 -0.011436057038925303 0.0011615173343004171 -0.00052653234278118486 0.05048281097486066 0.0526292959020771 -0.0079261398898280294 -0.071200007652961916 -0.037052433105342911
leaf_weight=3.1754680126905441 14.052233200520277 2.6429774314165115 6.7083787620067623 7.1141246855258959 4.8329246938228607 6.3564036190509796 6.3130648136138916 3.0400095358490944 1.6497121006250388 2.6374122574925405 6.4633285477757454 3.0446455404162407 6.1524049341678602 5.2536309659481049
leaf_count=24 242 17 28 30 49 34 27 18 16 37 92 35 29 22
internal_value=0.000480537 0.0184606 -0.0278886 -0.0140482 0.0183141 0.000635775 -0.0324384 0.0240227 0.0430046 0.0325848 0.0374582 0.0187247 -0.0478547 -0.0563649
internal_weight=79.4367 48.7504 30.6863 20.9031 7.4759 12.5719 13.4272 6.21548 27.8473 13.7951 12.1454 5.68206 18.1144 11.406
internal_count=700 545 155 123 66 76 57 42 422 180 164 72 79 51
cat_boundaries=0 1 2 3
cat_threshold=2 2 2
is_linear=0
shrinkage=0.05


Tree=24
num_leaves=15
num_cat=5
split_feature=6 4 8 0 8 12 4 0 14 14 1 13 0 16
split_gain=16.4581 9.54109 8.65833 7.30714 6.76382 5.33868 4.14972 3.94172 3.60849 2.47111 1.98802 1.7285 0.798919 0.713418
threshold=0 1 3.5000000000000004 29.500000000000004 3.5000000000000004 2 3 60.500000000000007 3.5000000000000004 7.5000000000000009 4 2022.5000000000002 60.500000000000007 2035.5000000000002
decision_type=1 1 2 2 2 1 1 2 2 2 1 2 2 2
left_child=1 -1 5 -2 8 -3 10 -8 -5 -10 -7 -4 -6 -9
right_child=3 2 11 4 12 6 7 13 9 -11 -12 -13 -14 -15
leaf_value=0.053099605761215932 -0.082928412334793478 0.04266089935877309 0.04051223271192627 -0.10027588173030751 0.049265683895610347 -0.060593313424130726 0.050573199557391084 -0.0290773319880216 0.010562138286685193 -0.055125286625654774 -0.019042774247800348 -0.0014170538987049184 0 -4.7909327072016326e-05
leaf_weight=13.429016467183828 8.0225904732942599 3.7632651180028915 14.067529711872341 2.2312032617628557 2.439903382211924 6.2090625464916229 2.8971367254853293 4.6002649739384633 2.5661850459873676 2.8046173192560673 6.4004862308502197 2.6902145668864241 1.4601627141237257 4.4908351227641106
leaf_count=214 38 24 138 16 42 29 43 22 27 23 28 24 12 20
internal_value=0.000468272 0.0138651 0.00505153 -0.0307245 -0.0199628 -0.0116503 -0.020301 0.000387458 -0.0474838 -0.0232063 -0.0402118 0.033516 0.0322771 -0.0154379
internal_weight=78.0725 58.5478 45.1188 19.5247 11.5021 28.3611 24.5978 11.9882 7.60201 5.3708 12.6095 16.7577 3.90007 9.0911
internal_count=700 542 328 158 120 166 142 85 66 50 57 162 54 42
cat_boundaries=0 1 2 3 4 5
cat_threshold=7 1 2 2 2
is_linear=0
shrinkage=0.05


Tree=25
num_leaves=15
num_cat=6
split_feature=6 7 4 12 11 4 7 0 15 0 0 14 11 14
split_gain=14.9451 9.52081 10.0198 7.00558 9.03904 6.65759 8.70892 3.09177 2.97564 1.55373 1.41842 1.47072 1.28991 0.72733
threshold=0 1 2 3 11827.000000000002 4 5 19.500000000000004 5479.0000000000009 60.500000000000007 63.500000000000007 11.500000000000002 16009.700000000003 5.5000000000000009
decision_type=1 1 1 1 2 1 1 2 2 2 2 2 2 2
left_child=1 7 -3 4 -4 -2 12 -1 -6 -8 11 -9 -7 -10
right_child=5 2 3 -5 8 6 9 10 13 -11 -12 -13 -14 -15
leaf_value=-0.017412343766597317 -0.078978061866777666 0.052827196742883886 -0.059573448852414071 0.045653678298270772 -0.027513327448505015 0.051180767841337627 -0.027527088903953556 0.054254456661175524 0.039378976537829985 -0.079037721706252465 0.012079808935004438 0.0040446891016997404 -0.0014479087513228973 0.005372540582740417
leaf_weight=2.0413183271884945 8.0079855620861053 6.5444003418087959 10.739201568067076 3.7926033288240459 4.4708659797906858 3.1023502573370934 3.4941025227308273 17.469199907034643 3.6684873476624489 3.4069609642028809 3.3747725859284392 1.8460842221975315 1.5392075404524801 3.4294344149529934
leaf_count=10 38 93 51 22 28 49 41 236 21 14 33 23 16 25
internal_value=0.000459741 0.0134174 -0.00184488 -0.0158934 -0.0267372 -0.0291712 -0.0188611 0.0390944 0.00356519 -0.0544371 0.0444515 0.0497587 0.0330114 0.023946
internal_weight=76.927 57.3764 32.645 26.1006 22.308 19.5506 11.5426 24.7314 11.5688 6.90106 22.6901 19.3153 4.64156 7.09792
internal_count=700 542 240 147 125 158 120 302 74 55 292 259 65 46
cat_boundaries=0 1 2 3 4 5 6
cat_threshold=7 2 1 1 2 2
is_linear=0
shrinkage=0.05


Tree=26
num_leaves=15
num_cat=7
split_feature=6 7 4 12 11 0 7 8 15 1 17 8 1 0
split_gain=13.6509 8.90567 9.38914 6.3992 8.35172 6.18147 7.78353 3.82654 2.70345 2.22308 2.84483 1.59676 1.61223 0.706587
threshold=0 1 2 3 11827.000000000002 23.500000000000004 4 3.5000000000000004 5479.0000000000009 5 5.5000000000000009 4.5000000000000009 6 60.500000000000007
decision_type=1 1 1 1 2 2 1 2 2 1 2 2 1 2
left_child=1 7 -3 4 -4 -2 11 9 -6 10 -1 12 -7 -8
right_child=5 2 3 -5 8 6 13 -9 -10 -11 -12 -13 -14 -15
leaf_value=0.032263923971819229 -0.092046156554214886 0.052536425417048706 -0.057565408774274379 0.043854865085861366 -0.026098381087056411 -0.032933434389335929 -0.040566838012879525 0.052505172621291257 0.022966472703240218 0.04334105886131269 -0.041602029458196389 0.050656439140672541 0.030292037570342864 -0.075599790187282412
leaf_weight=2.1094118766486645 4.6761706918478039 6.2593519501388073 10.566041335463526 3.7558072954416302 4.4827017635107023 1.9612898901104927 5.3714985996484739 15.956475242972372 7.0520177036523819 2.9572653099894541 2.9795740433037281 2.1924451477825642 1.859505120664835 3.3887796401977539
leaf_count=23 21 93 51 22 28 20 50 223 46 30 26 32 21 14
internal_value=0.000460344 0.0130262 -0.0017428 -0.0152271 -0.025645 -0.0278426 -0.0254219 0.0383243 0.00340838 0.00928929 -0.00998889 0.017601 -0.000899805 -0.0553834
internal_weight=75.5683 56.1186 32.1159 25.8566 22.1008 19.4497 14.7735 24.0027 11.5347 8.04625 5.08899 6.01324 3.8208 8.76028
internal_count=700 542 240 147 125 158 137 302 74 79 49 73 41 64
cat_boundaries=0 1 2 3 4 5 6 7
cat_threshold=7 2 1 1 2 2 2
is_linear=0
shrinkage=0.05


Tree=27
num_leaves=15
num_cat=9
split_feature=6 5 4 4 7 7 12 11 15 7 4 0 11 11
split_gain=12.4593 8.61817 11.2532 5.8244 7.14573 5.53048 5.77423 7.91918 5.22311 3.58205 3.50789 1.49922 1.35959 1.25124
threshold=0 1 2 3 4 5 6 11540.000000000002 5479.0000000000009 7 8 60.500000000000007 15753.000000000002 16009.700000000003
decision_type=1 1 1 1 1 1 1 2 2 1 1 2 2 2
left_child=1 2 -1 -2 13 -3 -7 10 -4 -10 -8 -6 -9 -5
right_child=3 5 8 4 11 6 7 12 9 -11 -12 -13 -14 -15
leaf_value=0.050600029731903452 -0.073158731632520901 0.054209822663890218 -0.081567063692527378 0.050703487728347457 -0.022912766134504089 0.07375803591260531 -0.049316705654869786 0.048948556857300818 0.01405290262189734 -0.055434085049040571 0.01251918914710265 -0.072489595672996662 0.0073925492630337224 -0.0018034113114318092
leaf_weight=3.9683930724859238 7.8946350067853928 15.306465178728104 5.4095315039157885 2.9172822199761868 3.6846352331340331 3.443362008780241 6.358992412686348 6.5138667710125429 4.1158278249204159 3.1245136074721813 3.3318626768887096 3.3624081462621689 3.2975918129086494 1.5233908705413339
leaf_count=74 38 201 31 49 41 27 30 56 42 21 39 14 21 16
internal_value=0.00046071 0.0126485 -0.0134005 -0.0265421 -0.016625 0.0245039 0.0149545 0.00399361 -0.04462 -0.0155992 -0.0276352 -0.0479506 0.0357017 0.0319466
internal_weight=74.2528 54.8704 16.6183 19.3824 11.4877 38.2521 22.9457 19.5023 12.6499 7.24034 9.69086 7.04704 9.81146 4.44067
internal_count=700 542 168 158 120 374 173 146 94 63 69 55 77 65
cat_boundaries=0 1 2 3 4 5 6 7 8 9
cat_threshold=7 8 1 2 2 2 2 2 2
is_linear=0
shrinkage=0.05


Tree=28
num_leaves=15
num_cat=1
split_feature=7 0 0 0 8 0 0 11 13 15 14 11 11 13
split_gain=11.1357 6.5624 8.99797 5.6195 2.89458 2.14032 1.97103 1.78438 1.11117 0.981729 0.957069 1.25081 1.97352 0.633986
threshold=0 29.500000000000004 60.500000000000007 21.500000000000004 3.5000000000000004 60.500000000000007 28.500000000000004 14605.500000000002 2011.5000000000002 3652.5000000000005 1.5000000000000002 11540.000000000002 10135.500000000002 2015.5000000000002
decision_type=1 2 2 2 2 2 2 2 2 2 2 2 2 2
left_child=3 9 10 -1 5 6 -5 -4 -6 -2 -3 12 -12 -11
right_child=1 2 7 4 8 -7 -8 -9 -10 13 11 -13 -14 -15
leaf_value=-0.022040962922976772 -0.058714259234484617 -0.0035865375906853196 -0.046110691376493727 -0.0058920095017665503 0.0075474935169172353 -0.026777680888240077 0.050391687926020438 -0.0081161083306619183 0.050593660955137468 -0.040857805022188977 0.04957820297427401 0.051893346575272892 -0.0099119924077528433 -0.014123493738928506
leaf_weight=5.3703734874725368 5.5291697680950191 1.5578248053789163 7.0080325305461866 2.5007684826850909 2.0247234888374832 2.6494748145341873 3.412773996591568 6.2154745757579803 14.55690500512719 6.4946683794260007 2.344169866293667 5.6752102077007294 2.9436609335243702 4.6566978842020035
leaf_count=26 29 16 30 13 27 17 65 27 236 29 37 92 35 21
internal_value=0.000461172 -0.0160234 0 0.0235204 0.0334982 0.00901144 0.0260563 -0.0288222 0.0457139 -0.0403525 0.0300897 0.0353161 0.0159635 -0.030363
internal_weight=72.9399 42.4249 25.7444 30.515 25.1446 8.56302 5.91354 13.2235 16.5816 16.6805 12.5209 10.963 5.28783 11.1514
internal_count=700 316 237 384 358 95 78 57 263 79 180 164 72 50
cat_boundaries=0 1
cat_threshold=2
is_linear=0
shrinkage=0.05


Tree=29
num_leaves=15
num_cat=1
split_feature=7 0 0 0 16 0 0 11 15 14 11 11 11 13
split_gain=10.2739 6.04146 8.24983 5.24532 1.80826 2.29891 1.76644 1.60404 0.95807 0.916989 1.2387 1.87784 0.74569 0.58267
threshold=0 29.500000000000004 60.500000000000007 23.500000000000004 2025.5000000000002 62.500000000000007 65.500000000000014 14605.500000000002 3652.5000000000005 1.5000000000000002 11540.000000000002 10135.500000000002 9885.5000000000018 2015.5000000000002
decision_type=1 2 2 2 2 2 2 2 2 2 2 2 2 2
left_child=3 8 9 12 -5 -6 -7 -4 -2 -3 11 -11 -1 -10
right_child=1 2 7 4 5 6 -8 -9 13 10 -12 -13 -14 -15
leaf_value=0.0012933032486246259 -0.05737763016325214 -0.0034091310168286163 -0.043775985900712772 -0.0084961876040229329 0.048747133512632629 -0.021610783279126904 0.036032320129179424 -0.0077103206254140163 -0.039290280584729144 0.049224692800118937 0.05163014877841892 -0.0093597505382017245 -0.029313265735592647 -0.013486170657662304
leaf_weight=3.6404698789119747 5.381178259849551 1.562040470540526 7.0177529752254468 1.9758173152804399 15.558700047433378 2.337917022407054 2.7072663940489292 6.2205876260995865 6.4219545572996122 2.2461550869047624 5.4257512241601944 2.9667644575238228 3.6146688610315323 4.6381339877843857
leaf_count=22 29 16 30 23 271 22 28 27 29 37 92 35 18 21
internal_value=0.000439231 -0.015449 0 0.0228862 0.0347953 0.0392093 0.0084481 -0.0273887 -0.038972 0.0293815 0.0346486 0.0153935 -0.013467 -0.029135
internal_weight=71.7152 41.8803 25.4391 29.8348 22.5797 20.6039 5.04518 13.2383 16.4413 12.2007 10.6387 5.21292 7.25514 11.0601
internal_count=700 316 237 384 344 321 50 57 79 180 164 72 40 50
cat_boundaries=0 1
cat_threshold=2
is_linear=0
shrinkage=0.05


Tree=30
num_leaves=15
num_cat=9
split_feature=6 5 4 4 7 7 1 15 11 7 4 14 13 14
split_gain=11.5573 8.01494 9.59095 4.69925 6.22658 4.64165 6.19381 4.44183 3.22701 3.0019 2.1139 1.25016 1.20469 0.637641
threshold=0 1 2 3 4 5 6 5479.0000000000009 10439.000000000002 7 8 3.5000000000000004 2019.5000000000002 5.5000000000000009
decision_type=1 1 1 1 1 1 1 2 2 1 1 2 2 2
left_child=1 2 -1 -2 11 -3 10 -4 -8 13 -7 -5 -12 -9
right_child=3 5 7 4 -6 6 8 9 -10 -11 12 -13 -14 -15
leaf_value=0.049927042105073927 -0.069665920843374043 0.053564829448753903 -0.076825512460852285 -0.0036112561257716442 -0.046751827490244993 -0.036368728709277327 0 0.031554053553447495 0.060985189433851311 -0.051482766613387354 0.026324376692222564 0.050360649272906427 -0.013898178827281837 -0.0061921289175734346
leaf_weight=3.519283689558506 7.655641682446003 14.00958701223135 5.2620849311351758 1.4885986186563966 6.9090853929519671 4.3072835206985474 3.080438319593668 2.085805475711823 7.5573615953326225 3.0954455807805061 3.8514083102345467 2.6035512425005436 3.2691546604037285 1.8787347450852392
leaf_count=74 38 201 31 20 55 22 15 23 70 21 38 45 28 19
internal_value=0.00041365 0.0125258 -0.0130694 -0.0258225 -0.0177703 0.0242738 0.0162445 -0.0422423 0.0435995 -0.0150548 -0.00894305 0.0299168 0.00722842 0.0127243
internal_weight=70.5735 51.9166 15.8414 18.6569 11.0012 36.0752 22.0656 12.3221 10.6378 7.05999 11.4278 4.09215 7.12056 3.96454
internal_count=700 542 168 158 120 374 173 94 85 63 88 65 66 42
cat_boundaries=0 1 2 3 4 5 6 7 8 9
cat_threshold=7 8 1 2 2 2 2 2 2
is_linear=0
shrinkage=0.05


Tree=31
num_leaves=15
num_cat=6
split_feature=6 5 4 8 7 1 0 7 0 0 0 8 11 0
split_gain=10.5286 7.36074 8.83512 9.17744 4.52074 5.73504 4.51775 5.46703 3.26387 1.94121 3.30831 1.4844 0.730477 0.568381
threshold=0 1 2 3.5000000000000004 3 4 23.500000000000004 5 27.500000000000004 29.500000000000004 60.500000000000007 4.5000000000000009 12926.000000000002 60.500000000000007
decision_type=1 1 1 2 1 1 2 1 2 2 2 2 2 2
left_child=1 2 -1 -4 -3 9 -2 11 -7 -6 -11 -8 -5 -9
right_child=6 4 3 12 5 8 7 13 -10 10 -12 -13 -14 -15
leaf_value=0.049670544218900617 -0.081548544758774766 0.053047506696089056 -0.069356954553861053 0.04014809781701522 -0.035109588116859901 0.0044176867451069602 -0.0028598380152451315 -0.034600045203919592 0.063712519766863165 0.049772017798844777 -0.019124888799545464 0.049595633557466788 -0.0008625150195624465 -0.066512148739987551
leaf_weight=3.3650031834840775 4.4667403548955944 13.453967474400997 8.442839100956915 2.2592190131545062 4.2438917607069016 3.8849626034498215 3.6113913841545582 5.3335273638367635 6.5367518104612827 2.7144822627305984 4.3788426071405411 1.9050041250884531 1.5801920741796491 3.2724934369325638
leaf_count=74 21 201 49 26 22 17 41 50 68 48 18 32 19 14
internal_value=0.000407483 0.0121266 -0.0125111 -0.0403187 0.0235334 0.0156623 -0.024605 -0.0230964 0.0423361 -0.00857614 0.00687097 0.0149251 0.0224066 -0.0479337
internal_weight=69.4493 50.8602 15.6473 12.2823 35.2129 21.7589 18.5892 14.1224 10.4217 11.3372 7.09332 5.5164 3.83941 8.60602
internal_count=700 542 168 94 374 173 158 137 85 88 66 73 45 64
cat_boundaries=0 1 2 3 4 5 6
cat_threshold=7 8 1 2 2 2
is_linear=0
shrinkage=0.05


Tree=32
num_leaves=15
num_cat=3
split_feature=7 0 0 0 8 16 11 11 13 0 16 4 0 1
split_gain=8.03319 4.81408 6.96928 4.64316 2.80735 1.87932 1.84092 1.44281 1.14382 1.10639 1.04598 0.926784 1.17097 1.31628
threshold=0 29.500000000000004 60.500000000000007 21.500000000000004 3.5000000000000004 2026.5000000000002 16009.700000000003 14605.500000000002 2011.5000000000002 21.500000000000004 2031.5000000000002 1 41.500000000000007 2
decision_type=1 2 2 2 2 2 2 2 2 2 2 1 2 1
left_child=3 9 11 -1 5 -5 -7 -4 -6 -2 -11 12 -3 -14
right_child=1 2 7 4 8 6 -8 -9 -10 10 -12 -13 13 -15
leaf_value=-0.020214252129702723 -0.016629958990387973 0.03804688233705214 -0.040620297543944292 -0.036663750383095384 0.0042627363044104262 0.036477844879514283 -0.022378425831581408 -0.0061676629933641123 0.049478676549324981 -0.062961000285916877 -0.026569173194924862 0.050694863136121031 -0.0247304293874584 0.028300253523507235
leaf_weight=5.2971846312284496 5.9472369253635398 3.7205120250582731 6.9075781553983671 1.7808442600071446 1.8689867593348015 4.5752282589673996 1.6667740531265733 6.1306417435407639 12.697479471564291 4.9417887628078443 4.7633540779352188 3.3804371953010532 2.3714716024696827 2.1214281134307384
leaf_count=26 28 64 30 16 27 64 15 27 236 29 22 56 31 29
internal_value=0.000407078 -0.0137862 0 0.0210652 0.031012 0.00640734 0.0198683 -0.0249713 0.0440867 -0.0353735 -0.0460627 0.0280956 0.0176949 0
internal_weight=68.1709 40.2844 24.6321 27.8865 22.5893 8.02285 6.242 13.0382 14.5665 15.6524 9.70514 11.5938 8.21341 4.4929
internal_count=700 316 237 384 358 95 79 57 263 79 51 180 124 60
cat_boundaries=0 1 2 3
cat_threshold=2 1 2
is_linear=0
shrinkage=0.05


Tree=33
num_leaves=15
num_cat=5
split_feature=6 4 12 7 11 8 0 7 11 16 8 14 0 14
split_gain=9.7471 6.56425 6.38067 6.14208 6.26103 4.78369 4.0275 4.72249 1.70824 1.47614 1.40227 0.89343 0.504745 2.77656
threshold=0 1 2 3 11827.000000000002 3.5000000000000004 23.500000000000004 4 12789.000000000002 2030.5000000000002 4.5000000000000009 5.5000000000000009 60.500000000000007 4.5000000000000009
decision_type=1 1 1 1 2 2 2 1 2 2 2 2 2 2
left_child=1 -1 3 5 -5 -3 -2 10 -4 -6 -8 -11 13 -9
right_child=6 2 8 4 9 -7 7 12 -10 11 -12 -13 -14 -15
leaf_value=0.051606126415971232 -0.07859974563129607 -0.012892679522422396 0.073648851308240768 -0.050243632001706666 -0.018875763680577456 0.048618240244690414 -0.0036148966126825412 -0.075890947626901253 0.017940997080516174 0.036357371939634169 0.048785285556767949 0 -0.063607091773494134 -0.0013121902770601992
leaf_weight=9.4551728889346123 4.3678310662508038 5.1394534967839718 3.5776585862040511 9.4564163461327571 3.9171203263103944 7.5715756304562092 3.5658369399607182 2.1268251240253431 2.7866465412080288 3.4889534898102283 1.7595270946621893 3.5039097778499126 3.2114273458719254 3.1703002713620663
leaf_count=214 21 37 31 51 27 107 41 15 28 21 32 26 14 35
internal_value=0.000387251 0.0119268 0.00519803 -0.00352967 -0.0206452 0.0234507 -0.0237661 -0.0227109 0.0506852 0.0047789 0.0133569 0.0188135 -0.0457588 -0.0330337
internal_weight=67.0987 48.8969 39.4417 33.0774 20.3664 12.711 18.2017 13.8339 6.36431 10.91 5.32536 6.99286 8.50855 5.29713
internal_count=700 542 328 269 125 144 158 137 59 74 73 47 64 50
cat_boundaries=0 1 2 3 4 5
cat_threshold=7 1 1 2 2
is_linear=0
shrinkage=0.05


Tree=34
num_leaves=15
num_cat=5
split_feature=6 5 8 0 7 7 1 11 0 0 13 0 0 11
split_gain=8.93174 6.87019 6.22616 3.90821 4.56419 3.90211 5.22944 3.85123 3.30777 7.69076 1.91873 1.8013 1.47804 1.3349
threshold=0 1 3.5000000000000004 29.500000000000004 2 3 4 9724.0000000000018 63.500000000000007 28.500000000000004 2015.5000000000002 56.500000000000007 63.500000000000007 12161.000000000002
decision_type=1 1 2 2 1 1 1 2 2 2 2 2 2 2
left_child=1 2 8 -2 -5 -3 10 -8 9 -1 -7 -11 -4 -12
right_child=3 5 12 4 -6 6 7 -9 -10 11 13 -13 -14 -15
leaf_value=-0.075418560094863668 -0.063636008061415186 0.052288603442137552 0.043653919233996634 0.027745672981013048 -0.039320783288866928 0.021176261021877554 -0.013632145400590882 0.058893587140678529 -0.096951528872537385 0.043543252705388703 -0.04253643843355695 -0.023509291972904411 -0.017243585640397824 0
leaf_weight=3.9746652841567975 7.2654814273118999 12.256784863770008 3.3703448213636884 3.7747882567346096 7.0078052356839162 3.6187841296195984 2.2119722962379456 7.7128593437373638 2.1729139983654013 2.7754252403974533 3.8115307129919529 1.3526669554412363 1.1956439614295957 3.4128931201994419
leaf_count=20 38 201 59 65 55 29 10 75 10 56 31 9 14 28
internal_value=0.000376 0.0115672 -0.0125277 -0.0227613 -0.0153434 0.0229095 0.0161419 0.0422561 -0.0425624 -0.0263632 -0.00747139 0.020353 0.026608 -0.0225971
internal_weight=65.9146 47.8665 14.8417 18.0481 10.7826 33.0248 20.768 9.92483 10.2757 8.10276 10.8432 4.12809 4.56599 7.22442
internal_count=700 542 168 158 120 374 173 85 95 85 88 65 73 59
cat_boundaries=0 1 2 3 4 5
cat_threshold=7 8 2 2 2
is_linear=0
shrinkage=0.05


Tree=35
num_leaves=15
num_cat=7
split_feature=6 5 4 8 7 1 4 7 0 13 11 11 0 11
split_gain=8.13448 6.31301 7.20749 6.88612 3.81299 4.83372 3.61914 4.10919 2.81734 1.74535 1.25814 1.22567 1.18415 0.693137
threshold=0 1 2 3.5000000000000004 3 4 5 6 27.500000000000004 2015.5000000000002 16009.700000000003 12161.000000000002 60.500000000000007 12926.000000000002
decision_type=1 1 1 2 1 1 1 1 2 2 2 2 2 2
left_child=1 2 -1 -4 -3 9 -2 10 -7 -6 -8 -11 -9 -5
right_child=6 4 3 13 5 8 7 12 -10 11 -12 -13 -14 -15
leaf_value=0.048787809365574461 -0.061197717232996988 0.051784882629191037 -0.063045476425238986 0.037561741669262398 0.020214601636798321 0.0058042721244458027 0.049082580032540263 -0.016335360037205583 0.062452962682287408 -0.04083321053744219 -0.007630082118692972 0 -0.06016991661683263 -0.0040206317738645195
leaf_weight=2.8724223524332047 7.1833061724901199 11.770517822355032 8.1736435592174512 2.038988139480352 3.6064706295728683 3.8221862763166428 2.3161547407507901 3.9597864188253897 5.9032581932842731 3.7770607769489288 1.3759593740105627 3.4128931201994419 3.1293364018201828 1.4887937083840368
leaf_count=74 38 201 49 26 29 17 49 41 68 31 16 28 14 19
internal_value=0.000357655 0.0111863 -0.012063 -0.0379327 0.0221711 0.0155258 -0.0217007 -0.0145478 0.0409841 -0.00711392 0.0269848 -0.021597 -0.0369485 0.0190078
internal_weight=64.8308 46.8662 14.5738 11.7014 32.2924 20.5219 17.9645 10.7812 9.72544 10.7964 3.69211 7.18995 7.08912 3.52778
internal_count=700 542 168 94 374 173 158 120 85 88 65 59 55 45
cat_boundaries=0 1 2 3 4 5 6 7
cat_threshold=7 8 1 2 2 2 2
is_linear=0
shrinkage=0.05


Tree=36
num_leaves=15
num_cat=6
split_feature=6 4 5 8 7 1 0 7 0 13 8 0 14 0
split_gain=7.45133 5.95949 7.0213 6.24131 4.38123 5.0565 3.44403 3.67814 2.6655 1.62219 1.31503 0.550137 2.48424 0.452299
threshold=0 1 2 3.5000000000000004 3 4 23.500000000000004 5 27.500000000000004 2019.5000000000002 4.5000000000000009 60.500000000000007 4.5000000000000009 54.500000000000007
decision_type=1 1 1 2 1 1 2 1 2 2 2 2 2 2
left_child=1 -1 3 -3 -4 9 -2 10 -7 -6 -8 12 -9 -5
right_child=6 2 4 13 5 8 7 11 -10 -11 -12 -13 -14 -15
leaf_value=0.051149934974298976 -0.072151537028784601 -0.060184873059823188 0.051184004440723976 0.034957375358812798 0.00073317384979484609 0.0055142883215531227 -0.0033345531138059149 -0.067749382700902291 0.065289294981952517 -0.040456774660505485 0.04851240855617709 -0.058244133354720652 0 0
leaf_weight=8.3684096205979586 4.165115654468539 8.1396502852439863 8.9749598354101181 1.8041939921677124 5.1046479642391205 3.8271542638540277 3.498457558453083 2.1472283825278264 3.995503032580018 4.0400519259274006 1.6558391600847242 3.0758360773324966 3.2414404302835464 1.6793008930981157
leaf_count=214 21 49 127 22 30 17 41 15 34 26 32 14 35 23
internal_value=0.000360041 0.0108433 0.00449838 -0.0195842 0.0166433 0.0076386 -0.0207867 -0.0194536 0.0371148 -0.0171641 0.0129762 -0.0397059 -0.027345 0.0182705
internal_weight=63.7178 45.9339 37.5655 11.6231 25.9423 16.9674 17.7839 13.6188 7.82266 9.1447 5.1543 8.4645 5.38867 3.48349
internal_count=700 542 328 94 234 107 158 137 51 56 73 64 50 45
cat_boundaries=0 1 2 3 4 5 6
cat_threshold=7 1 8 2 2 2
is_linear=0
shrinkage=0.05


Tree=37
num_leaves=15
num_cat=7
split_feature=6 4 5 8 7 1 11 4 7 13 14 0 11 16
split_gain=6.8318 5.70999 6.40785 5.67026 4.19718 4.64768 3.39642 3.2279 3.44101 1.48698 1.22957 1.1138 0.63134 0.429787
threshold=0 1 2 3.5000000000000004 3 4 11705.000000000002 5 6 2019.5000000000002 3.5000000000000004 60.500000000000007 12926.000000000002 2031.5000000000002
decision_type=1 1 1 2 1 1 2 1 1 2 2 2 2 2
left_child=1 -1 3 -3 -4 6 -6 -2 10 -7 -9 13 -5 -10
right_child=7 2 4 12 5 9 -8 8 11 -11 -12 -13 -14 -15
leaf_value=0.050978053123926254 -0.057573914876178071 -0.057481794664319047 0.050589524108322709 0.035877084548684296 0 0.00069718183133445869 0.066371359897962043 -0.0077256454241540415 -0.028614663641454843 -0.038785788613813807 0.04893920202274387 -0.056431599726965515 -0.0040812436304694319 0.00133878284307677
leaf_weight=7.9867714084684849 6.9739418849349022 8.1019633486866933 8.636185884475708 1.9578289724886428 3.5818333029747009 5.1049249246716517 4.1133345235139132 1.3830542825162413 2.199707359075548 4.008528683334589 2.1703988313674927 3.0205226242542267 1.4867748022079466 1.8673903644084928
leaf_count=214 38 49 127 26 16 30 35 20 20 26 45 14 19 21
internal_value=0.000361274 0.0105221 0.0043754 -0.0186686 0.0160755 0.00735961 0.0359408 -0.019913 -0.0129981 -0.0163591 0.0259081 -0.0332888 0.0175909 -0.0139597
internal_weight=62.5932 44.9781 36.9914 11.5466 25.4448 16.8086 7.69517 17.615 10.6411 9.11345 3.55345 7.08762 3.4446 4.0671
internal_count=700 542 328 94 234 107 51 158 120 56 65 55 45 41
cat_boundaries=0 1 2 3 4 5 6 7
cat_threshold=7 1 8 2 1 2 2
is_linear=0
shrinkage=0.05


Tree=38
num_leaves=15
num_cat=3
split_feature=9 8 0 11 15 7 12 0 0 15 16 16 0 0
split_gain=6.036 4.83335 3.40959 3.6708 2.75284 2.554 2.01156 1.56157 2.706 1.55534 1.48318 1.81048 1.45365 3.19693
threshold=0 3.5000000000000004 29.500000000000004 65250.000000000007 5479.0000000000009 1 2 33.500000000000007 60.500000000000007 5479.0000000000009 2031.5000000000002 2027.5000000000002 49.500000000000007 41.500000000000007
decision_type=1 2 2 2 2 1 1 2 2 2 2 2 2 2
left_child=2 6 4 -4 -1 -3 7 9 12 -2 11 -7 13 -9
right_child=1 5 3 -5 -6 10 -8 8 -10 -11 -12 -13 -14 -15
leaf_value=-0.024891846621075537 -0.027482623200469399 -0.027090740896594401 0.043663812980130355 -0.022126705077888397 0.026424930594679232 0.048836805477752737 0.0041162985756301451 0.046437763458756359 -0.044251740433413983 -0.074534522834795711 0.050845474189150031 -0.013672601072937773 0.046607212020773593 -0.047834371232793084
leaf_weight=5.7452893927693385 4.1143186949193495 3.0503079611808062 14.67224605754018 2.304689794778823 4.6049522720277309 1.6180690452456454 3.5812584925442961 1.3204262536019071 6.0369355604052544 4.1261508166790009 3.3284578863531351 3.3059108108282089 1.3970639985054729 2.2651877664029598
leaf_count=37 27 28 240 21 29 30 29 28 29 25 78 40 26 33
internal_value=0.000362409 -0.012167 0.0151129 0.0343624 -0.00154752 0.0106391 -0.028971 -0.0353711 -0.0219407 -0.052253 0.025341 0.0064366 0.00444611 -0.0114434
internal_weight=61.4713 34.1441 27.3272 16.9769 10.3502 11.3027 22.8413 19.2601 11.0196 8.24047 8.25244 4.92398 4.98268 3.58561
internal_count=700 373 327 261 66 176 197 168 116 52 148 70 87 61
cat_boundaries=0 1 2 3
cat_threshold=396 4 1
is_linear=0
shrinkage=0.05


Tree=39
num_leaves=15
num_cat=7
split_feature=6 4 5 8 12 7 11 1 0 7 8 11 16 14
split_gain=6.26568 5.32128 5.75148 4.93935 4.08953 5.35216 7.04578 3.55526 2.94783 3.09784 1.23688 0.602655 0.49752 0.608809
threshold=0 1 2 3.5000000000000004 3 4 11827.000000000002 5 23.500000000000004 6 4.5000000000000009 12926.000000000002 2030.5000000000002 7.5000000000000009
decision_type=1 1 1 2 1 1 2 1 2 1 2 2 2 2
left_child=1 -1 3 -3 -4 -6 -7 -8 -2 10 -10 -5 -11 -14
right_child=8 2 4 11 5 6 7 -9 9 12 -12 -13 13 -15
leaf_value=0.050764646377935554 -0.067847635676817328 -0.054369843408562726 0.069176491851524094 0.034851982924770222 0.048964366580932887 -0.041963216195769329 -0.0021696566618833349 0.065400472395050729 -0.0034184125970374898 -0.055184257231080426 0.04809487105049693 -0.0046452335508792462 -0.040883581578574309 -0.0048050305871217766
leaf_weight=7.4800137169659138 3.9830151498317745 7.9711510129272938 3.8042551763355732 1.8822333924472334 6.7794000692665577 6.6463234722614342 4.0920644998550415 3.3824468459933996 3.4315070137381554 2.877650357782839 1.5482127126306293 1.468392241746187 2.8827897533774376 2.5537502244114876
leaf_count=214 21 49 39 26 103 37 26 29 41 23 32 19 19 22
internal_value=0.000351745 0.0102648 0.00444167 -0.0176002 0.0155868 0.0127335 -0.00453132 0.0282075 -0.0191344 -0.0180544 0.0122445 0.0164606 -0.0367258 -0.0252321
internal_weight=60.7832 43.5063 36.0263 11.3218 24.7045 20.9002 14.1208 7.47451 17.2769 13.2939 4.97972 3.35063 8.31419 5.43654
internal_count=700 542 328 94 234 195 92 55 158 137 73 45 64 41
cat_boundaries=0 1 2 3 4 5 6 7
cat_threshold=7 1 8 2 2 2 2
is_linear=0
shrinkage=0.05


Tree=40
num_leaves=15
num_cat=4
split_feature=6 4 12 11 0 8 8 11 14 11 11 11 14 1
split_gain=5.74465 5.09378 5.4383 3.09684 2.77381 2.64698 2.6239 1.93641 1.81891 1.62451 2.62158 1.45534 1.41667 1.37373
threshold=0 1 2 13263.500000000002 23.500000000000004 4.5000000000000009 3.5000000000000004 10621.000000000002 3.5000000000000004 15753.000000000002 14343.600000000002 12322.000000000002 5.5000000000000009 3
decision_type=1 1 1 2 2 2 2 2 2 2 2 2 2 1
left_child=1 -1 3 6 -2 7 12 -6 -9 10 -5 -10 -3 -14
right_child=4 2 -4 9 5 -7 -8 8 11 -11 -12 -13 13 -15
leaf_value=0.050599137605183434 -0.065964544700912828 -0.0052172081577435674 0.048610965601195419 0.0017149144711249714 0.010830452449041387 0.031107876412195402 0.0088169901842338107 -0.073635823349600185 -0.046936427640277896 -0.0043661897414308728 0.066742538054013201 0 -0.061143821824854422 -0.015867118507769198
leaf_weight=7.1382175870239735 3.8969357460737255 4.0463914386928135 5.7142037134617558 3.5597038324922305 2.360126342624425 2.1778189167380324 6.0459437593817702 2.5841739922761899 2.8821750618517399 5.202653244137764 2.8991400264203548 3.2589025087654591 4.5788493603467941 3.308499950915575
leaf_count=214 21 31 59 30 26 39 82 19 22 44 33 31 29 20
internal_value=0.000343073 0.00997395 0.00432426 -0.00417992 -0.0183075 -0.0172421 -0.0172907 -0.0273811 -0.0382893 0.0155842 0.0322383 -0.0216727 -0.0308963 -0.0432141
internal_weight=59.6537 42.4936 35.3554 29.6412 17.1601 13.2632 17.9797 11.0854 8.72525 11.6615 6.45884 6.14108 11.9337 7.88735
internal_count=700 542 328 269 158 137 162 98 72 107 63 53 80 49
cat_boundaries=0 1 2 3 4
cat_threshold=7 1 1 2
is_linear=0
shrinkage=0.05


Tree=41
num_leaves=15
num_cat=5
split_feature=9 7 0 11 0 15 12 0 0 0 4 1 0 16
split_gain=5.32612 3.69065 2.84825 3.40806 2.61502 2.52026 2.29062 1.56242 2.55104 1.39751 1.44653 1.31942 0.531069 0.339655
threshold=0 1 29.500000000000004 65250.000000000007 20.500000000000004 5479.0000000000009 2 33.500000000000007 63.500000000000007 60.500000000000007 3 4 61.500000000000007 2029.5000000000002
decision_type=1 1 2 2 2 2 1 2 2 2 1 1 2 2
left_child=2 4 5 12 -2 -1 7 13 11 10 -6 -9 -4 -3
right_child=1 6 3 -5 9 -7 -8 8 -10 -11 -12 -13 -14 -15
leaf_value=-0.02329786187579639 -0.041486740450232679 -0.036722255059514812 0.051838032885767618 -0.021573040595996143 0.0047013394882059745 0.026685644226128111 0.0081625939562486229 -0.02347088758535161 -0.052605385774699621 -0.011282448170411886 0.049006617310519043 0.023388331905106724 0.02812895177290798 -0.069294888411941966
leaf_weight=5.5472086817026156 2.3502747267484674 2.8074269481003311 7.9291638564318436 2.2754660695791236 4.1211456097662449 4.4471027366816998 3.2118751592934158 3.08314891718328 4.1156959235668182 3.1795881800353527 3.7422618977725488 2.7283578217029554 5.8718394003808498 3.5412585344165564
leaf_count=37 12 21 200 21 33 29 23 41 19 32 128 40 40 24
internal_value=0.000335777 -0.0115841 0.0144516 0.0329461 0.00477909 -0.00051767 -0.0289662 -0.0366036 -0.0229704 0.0153585 0.0267651 -0.000602344 0.0423853 -0.0564592
internal_weight=58.9518 32.881 26.0708 16.0765 13.3933 9.99431 19.4878 16.2759 9.9272 11.043 7.86341 5.81151 13.801 6.34869
internal_count=700 373 327 261 205 66 168 145 100 193 161 81 240 45
cat_boundaries=0 1 2 3 4 5
cat_threshold=396 2 1 2 2
is_linear=0
shrinkage=0.05


Tree=42
num_leaves=15
num_cat=8
split_feature=6 4 5 8 7 1 4 7 13 4 14 15 16 13
split_gain=5.30844 4.67462 5.16803 4.35049 3.59932 4.09271 2.47546 2.75609 1.23751 1.23439 1.12288 0.469457 0.397281 0.389602
threshold=0 1 2 3.5000000000000004 3 4 5 6 2019.5000000000002 7 3.5000000000000004 5479.0000000000009 2031.5000000000002 2017.5000000000002
decision_type=1 1 1 2 1 1 1 1 2 1 2 2 2 2
left_child=1 -1 3 11 -4 8 -2 10 -6 -7 -8 -3 -5 -9
right_child=6 2 4 12 5 9 7 13 -10 -11 -12 -13 -14 -15
leaf_value=0.050353618534897338 -0.052109552978919393 -0.066951584084510601 0.049506685541806365 -0.00035458495080355006 0.00059628617498553053 0.05952103646679982 -0.0071873268152297526 -0.040660977882661826 -0.036155509128235633 0.015338045147422125 0.048207911648324664 -0.035656453579507995 0.031248348715432167 -0.013076093864983511
leaf_weight=6.6104660015553236 6.5465533137321472 3.6942106522619724 7.7168023642152548 1.5134329758584502 4.9231885708868504 3.0678553264588118 1.3667792081832888 4.0184863358736056 3.7977293059229851 4.17911021411419 1.9452221132814882 4.0783362425863743 1.7413053307682274 3.028506938368082
leaf_count=214 38 22 127 17 30 32 20 30 26 19 45 27 28 25
internal_value=0.000315891 0.00972515 0.00451553 -0.0166158 0.0151916 0.00754661 -0.0176507 -0.0119817 -0.0150698 0.0352781 0.0243416 -0.0518273 0.0154902 -0.0298546
internal_weight=58.228 41.3224 34.712 11.0273 23.6847 15.9679 16.9055 10.359 8.72092 7.24697 3.312 7.77255 3.25474 7.04699
internal_count=700 542 328 94 234 107 158 120 56 51 65 49 45 55
cat_boundaries=0 1 2 3 4 5 6 7 8
cat_threshold=7 1 8 2 2 2 2 4
is_linear=0
shrinkage=0.05


Tree=43
num_leaves=15
num_cat=5
split_feature=5 7 12 1 11 8 15 4 11 11 0 11 0 0
split_gain=4.83694 4.39899 4.21941 3.90801 4.82556 3.54276 3.09001 2.42029 2.57656 1.59599 1.39949 2.79128 0.967322 2.7314
threshold=0 1 2 3 9724.0000000000018 3.5000000000000004 5479.0000000000009 4 11408.000000000002 14605.500000000002 29.500000000000004 10598.200000000003 62.500000000000007 28.500000000000004
decision_type=1 1 1 1 2 2 2 1 2 2 2 2 2 2
left_child=5 10 -3 9 -5 7 -7 8 -1 -4 11 -2 13 -9
right_child=1 2 3 4 -6 6 -8 12 -10 -11 -12 -13 -14 -15
leaf_value=-0.046378072558801893 0.047205946816695529 0.044261577023435 -0.04119454185239977 -0.043824520790653215 0.037079322095541982 -0.035604056008776787 0.03766653285709623 -0.065666173301125189 0.046908173422508366 -0.0022018897085960515 0.051683957584275575 -0.016002869361043719 -0.07573517141405875 0
leaf_weight=1.3432992603629839 3.6029384844005108 4.372939420863986 7.7998931407928467 2.3855163604021108 6.7429342530667782 2.3198243454098693 3.3747846595942974 3.6728062331676483 1.416539818048477 4.3683615550398827 6.7507339585572481 3.077181126922369 3.223928302526474 2.8427647948265076
leaf_count=25 32 39 75 13 70 31 65 22 35 30 199 21 16 27
internal_value=0.000310665 0.00976703 0 -0.00913536 0.0151493 -0.016177 0.00685595 -0.0398783 0 -0.0277359 0.0353289 0.0175449 -0.0514905 -0.0377748
internal_weight=57.2944 39.1005 25.6696 21.2967 9.12845 18.1939 5.69461 12.4993 2.75984 12.1683 13.4309 6.68012 9.7395 6.51557
internal_count=700 479 227 188 83 221 96 125 60 105 252 53 65 49
cat_boundaries=0 1 2 3 4 5
cat_threshold=8 2 2 2 1
is_linear=0
shrinkage=0.05


Tree=44
num_leaves=15
num_cat=8
split_feature=6 4 12 9 7 11 0 7 8 7 1 11 11 8
split_gain=4.89291 4.35438 4.7095 3.72173 3.08288 2.49519 2.34585 2.4315 1.53659 3.4143 1.24795 1.21566 1.18359 1.05501
threshold=0 1 2 3 4 14605.500000000002 23.500000000000004 5 3.5000000000000004 6 7 10621.000000000002 12789.000000000002 3.5000000000000004
decision_type=1 1 1 1 1 2 2 1 2 1 1 2 2 2
left_child=1 -1 3 4 -3 -6 -2 11 10 -10 -5 -8 -4 -13
right_child=6 2 12 8 5 -7 7 -9 9 -11 -12 13 -14 -15
leaf_value=0.050149687912363718 -0.062385450902097954 0.053626859949595353 0.067634653130847988 -0.017019079079105961 -0.017646053135326325 0.033546507620421051 0.053593173561516917 -0.032693773788417507 0.033294581252415661 -0.055028278725996298 -0.055209110003138176 -0.028440701044887134 0.0163431621168308 0.024348142116926957
leaf_weight=6.1978794746100903 3.6687276586890247 4.5503299422562122 3.0573236513882867 4.592318598181012 5.5591906551271659 3.9696922227740288 1.1683281138539312 8.2790678106248361 2.606370197609067 1.7304414752870787 5.2322893384844056 1.8827525749802592 2.3531222082674503 1.6745875664055345
leaf_count=214 21 77 31 34 40 23 17 64 48 12 35 19 28 37
internal_value=0.000289325 0.00952269 0.00458687 -0.00348702 0.0118302 0.00328819 -0.016967 -0.0163416 -0.0160695 -0.00126636 -0.0382131 0.011354 0.0469356 -0.00223741
internal_weight=56.5224 39.849 33.6511 28.2406 14.0792 9.52888 16.6735 13.0047 14.1614 4.33681 9.82461 4.72567 5.41045 3.55734
internal_count=700 542 328 269 140 63 158 137 129 60 69 73 59 56
cat_boundaries=0 1 2 3 4 5 6 7 8
cat_threshold=7 1 1 156 2 2 2 1
is_linear=0
shrinkage=0.05


Tree=45
num_leaves=15
num_cat=4
split_feature=9 8 4 11 15 7 1 11 15 11 16 16 16 14
split_gain=4.5282 3.11412 2.43954 3.33564 2.18415 1.91323 1.49584 2.34358 2.39331 1.86197 1.33733 1.49082 0.993048 0.952938
threshold=0 3.5000000000000004 1 65250.000000000007 5479.0000000000009 2 3 11540.000000000002 5479.0000000000009 10598.200000000003 2031.5000000000002 2027.5000000000002 2025.5000000000002 5.5000000000000009
decision_type=1 2 1 2 2 1 1 2 2 2 2 2 2 2
left_child=2 6 4 12 -1 10 9 8 -8 -2 11 -3 -4 -13
right_child=1 5 3 -5 -6 -7 7 -9 -10 -11 -12 13 -14 -15
leaf_value=-0.021961813476405096 0 0.046978602017668514 -0.002034469142180854 -0.023145913197937618 0.025748881891758869 -0.024896341558625426 0 0.014961820978131719 -0.062130632660824026 -0.049097009590394813 0.050062867520001587 0.011396140836259974 0.045570958110941508 -0.041484906937718002
leaf_weight=5.2671619839966297 2.2733050249516973 1.3382051829248665 0.97768454626202483 2.1840157452970752 4.2316065914928913 2.8297838009893876 2.9764832649380004 4.6023624408990145 3.0296797007322311 8.4629440475255233 2.6706830002367496 1.5002065133303406 11.811426308006046 1.5281715765595434
leaf_count=37 28 30 14 21 29 28 27 47 22 73 78 19 226 21
internal_value=0.000298023 -0.0108878 0.0136359 0.0316959 -0.000139454 0.00843017 -0.0251258 -0.0109827 -0.0316015 -0.038409 0.0226928 0.00408735 0.0415562 -0.0141634
internal_weight=55.6837 31.2118 24.4719 14.9731 9.49877 9.86705 21.3448 10.6085 6.00616 10.7362 7.03727 4.36658 12.7891 3.02838
internal_count=700 373 327 261 66 176 197 96 49 101 148 70 240 40
cat_boundaries=0 1 2 3 4
cat_threshold=396 2 2 2
is_linear=0
shrinkage=0.05


Tree=46
num_leaves=15
num_cat=8
split_feature=6 4 5 8 12 7 11 1 4 7 0 16 14 0
split_gain=4.35246 4.13149 4.30887 3.33191 3.13823 4.15308 5.37923 2.97463 2.22556 2.18203 1.24148 1.03584 0.586761 0.572021
threshold=0 1 2 3.5000000000000004 3 4 11827.000000000002 5 6 7 60.500000000000007 2031.5000000000002 6.5000000000000009 58.500000000000007
decision_type=1 1 1 2 1 1 2 1 1 1 2 2 2 2
left_child=1 -1 3 -3 -4 -6 -7 -8 -2 11 12 -10 -11 -5
right_child=8 2 4 13 5 6 7 -9 9 10 -12 -13 -14 -15
leaf_value=0.049971709136130388 -0.049226632168210896 -0.047569138127168203 0.065026777652282361 0.032156753704202817 0.047292141613038866 -0.037055654411401927 -0.0010025136639508698 0.062594235469178652 0.049313244425077778 -0.026254283409576362 -0.051537278695943038 -0.0047223344312135769 0.0087972481953288943 -0.0083197573448262757
leaf_weight=5.8381881862878799 6.2214551568031311 7.4593296460807323 3.3331832513213158 1.6928204260766508 5.7886532973498106 6.1592246443033272 4.0260651521384716 3.0634148586541414 1.6556459572166207 2.1250114962458628 2.8167176991701126 1.4574591647833584 2.2153376080095768 1.3499406836926935
leaf_count=214 38 49 39 27 103 37 26 29 35 16 14 30 25 18
internal_value=0.000290777 0.00914572 0.00438754 -0.0152413 0.0142798 0.0123017 -0.00285156 0.026271 -0.0159949 -0.0105249 -0.0259564 0.0230997 -0.00744254 0.0129148
internal_weight=55.2024 38.7108 32.8726 10.5021 22.3705 19.0374 13.2487 7.08948 16.4916 10.2702 7.15707 3.11311 4.34035 3.04276
internal_count=700 542 328 94 234 195 92 55 158 120 55 65 41 45
cat_boundaries=0 1 2 3 4 5 6 7 8
cat_threshold=7 1 8 2 2 2 2 2
is_linear=0
shrinkage=0.05


Tree=47
num_leaves=15
num_cat=3
split_feature=9 8 0 11 15 7 1 0 11 15 0 0 16 16
split_gain=4.09413 2.67495 2.16276 3.12521 1.9559 1.74799 1.34054 2.43705 2.0283 2.16162 1.80109 1.54716 1.28628 1.34946
threshold=0 3.5000000000000004 29.500000000000004 65250.000000000007 5479.0000000000009 1 2 60.500000000000007 11540.000000000002 5479.0000000000009 64.500000000000014 44.500000000000007 2031.5000000000002 2027.5000000000002
decision_type=1 2 2 2 2 1 1 2 2 2 2 2 2 2
left_child=2 6 4 -4 -1 12 7 11 9 -8 -10 -2 13 -3
right_child=1 5 3 -5 -6 -7 8 -9 10 -11 -12 -13 -14 -15
leaf_value=-0.020610970271127228 -0.030757687712081275 0.046161333989378189 0.040666030201238913 -0.022399925067338525 0.025063212017923782 -0.024245251159872406 0 -0.067351861655580422 0.042510549823920801 -0.058881881279844464 -0.01888914548510736 0.022514808678547167 0.049743552902487345 -0.013573898656784159
leaf_weight=5.1356440111994761 4.9627474509179592 1.240584213286638 12.22035384736955 2.1615353077650061 4.1434410735964775 2.775457136332987 2.9077147580683267 3.9764789938926697 2.4860300458967686 2.9693763162940741 2.0081704929471016 1.674439515918493 2.4940183572471142 2.9873866531997919
leaf_count=37 52 30 240 21 29 28 27 20 37 22 10 29 78 40
internal_value=0.000294037 -0.0104197 0.0131455 0.030753 0 0.0077411 -0.0238155 -0.0364325 -0.0102016 -0.0296023 0.0141727 -0.0164412 0.0218427 0.00346012
internal_weight=54.1434 30.4824 23.661 14.3819 9.27909 9.49745 20.985 10.6137 10.3713 5.87709 4.4942 6.63719 6.72199 4.22797
internal_count=700 373 327 261 66 176 197 101 96 49 47 81 148 70
cat_boundaries=0 1 2 3
cat_threshold=396 2 2
is_linear=0
shrinkage=0.05


Tree=48
num_leaves=15
num_cat=5
split_feature=6 4 12 9 14 0 8 11 14 0 0 4 11 16
split_gain=3.92454 3.88103 4.07482 3.07092 2.39906 2.07621 1.91679 1.57965 1.40156 1.52374 1.39352 2.78329 1.03566 0.882599
threshold=0 1 2 3 11.500000000000002 23.500000000000004 4.5000000000000009 10621.000000000002 3.5000000000000004 43.500000000000007 63.500000000000007 4 12789.000000000002 2030.5000000000002
decision_type=1 1 1 1 2 2 2 2 2 2 2 1 2 2
left_child=1 -1 12 4 -4 -2 7 -7 -9 -10 11 13 -3 -5
right_child=5 2 3 10 -6 6 -8 8 9 -11 -12 -13 -14 -15
leaf_value=0.049777121868689989 -0.058937484824933023 0.065227395106251751 0.028017046135749148 -0.010188416393620439 -0.029878711590427338 0.012380603067085681 0.029189327480571892 -0.06355305992418063 -0.049482126734829358 0.0008820435521493938 -0.051787709508620751 0.026880612420065026 0.015361310497616071 -0.048191832083044568
leaf_weight=5.4781426563858986 3.4530459269881275 2.8422993952408433 11.380869988352057 3.3084621615707874 1.9552560932934291 2.2394694723188868 1.9344085585325945 2.612767390906809 2.2267369665205479 3.703796673566103 3.7618322484195224 2.6878883708268457 2.219807056710124 3.7499460205435753
leaf_count=214 21 31 122 26 18 26 39 19 16 37 25 55 28 23
internal_value=0.000277875 0.00884818 0.00429563 -0.00334269 0.0108914 -0.0152356 -0.0144989 -0.0229921 -0.0328788 -0.017706 -0.0148389 -0.0147591 0.0450502 -0.0314683
internal_weight=53.5547 37.3845 31.9064 26.8443 13.3361 16.1702 12.7172 10.7828 8.5433 5.93053 13.5081 9.7463 5.06211 7.05841
internal_count=700 542 328 269 140 158 137 98 72 53 129 104 59 49
cat_boundaries=0 1 2 3 4 5
cat_threshold=7 1 2 156 2
is_linear=0
shrinkage=0.05


Tree=49
num_leaves=15
num_cat=7
split_feature=5 7 12 1 11 4 15 13 11 4 11 7 14 16
split_gain=3.88446 3.60333 3.44381 3.31445 3.85581 2.03188 3.48863 1.87724 1.3263 1.25508 2.38687 1.12274 0.796865 0.794853
threshold=0 1 2 3 9724.0000000000018 4 5479.0000000000009 2011.5000000000002 14605.500000000002 5 10598.200000000003 6 7.5000000000000009 2036.5000000000002
decision_type=1 1 1 1 2 1 2 2 2 1 2 1 2 2
left_child=5 9 -3 8 -5 7 -7 -1 -4 10 -2 -8 -6 -9
right_child=1 2 3 4 12 6 11 13 -10 -11 -12 -13 -14 -15
leaf_value=-0.050543950768509587 0.046064250944845571 0.042145130500314529 -0.038142672369579578 -0.039562462941215654 0.047243020323794578 -0.060223588710312581 0.0081943494125861771 0.047650070038246839 -0.0017544406644474594 0.05137696464989832 -0.014213247200720515 -0.029653075570700956 0.0052274758581912434 -0.0095052214041510819
leaf_weight=0.80804303847253356 3.2710267528891563 4.014811628498137 7.3881810959428549 2.1960317417979276 4.3711718581616879 6.0524205435067433 4.1174654979258776 1.939702542498708 4.2254250943660736 5.6586205586791039 2.9572176970541477 3.3726034574210644 1.9259474445134399 0.63724719919264305
leaf_count=14 32 39 75 13 46 45 53 67 30 199 21 27 24 15
internal_value=0.000268527 0.00908485 0.000255843 -0.00802812 0.015243 -0.0147867 -0.0321741 0.00983881 -0.0254583 0.0340115 0.0168816 -0.00835486 0.0354569 0.0318214
internal_weight=52.9359 36.0084 24.1216 20.1068 8.49315 16.9275 13.5425 3.38499 11.6136 11.8869 6.22824 7.49007 6.29712 2.57695
internal_count=700 479 227 188 83 221 125 96 105 252 53 80 70 82
cat_boundaries=0 1 2 3 4 5 6 7
cat_threshold=8 2 2 2 1 2 2
is_linear=0
shrinkage=0.05


Tree=50
num_leaves=15
num_cat=6
split_feature=6 4 12 7 11 1 0 7 14 13 0 0 11 11
split_gain=3.58612 3.60951 3.69017 2.74312 3.25878 1.97912 1.90837 1.84336 1.46088 1.41546 1.21361 1.06426 0.937653 0.924166
threshold=0 1 2 3 11827.000000000002 4 29.500000000000004 5 8.5000000000000018 2016.5000000000002 60.500000000000007 60.500000000000007 16009.700000000003 12789.000000000002
decision_type=1 1 1 1 2 1 2 1 2 2 2 2 2 2
left_child=1 -1 3 5 -5 8 -2 12 9 -3 -9 -6 -8 -4
right_child=6 2 13 4 11 -7 7 10 -10 -11 -12 -13 -14 -15
leaf_value=0.049558474584189993 -0.046211751685892657 -0.011240901355806894 0.063391646900107373 -0.039395663844489559 0.02763082113937515 0.045724977963285042 0.046641186198528667 -0.0057711379602295703 -0.032829892089436812 0.049754424419838898 -0.049599894003421997 -0.007240177117156979 -0.0060989373512080544 0.015253781685638608
leaf_weight=5.1129932636395115 5.9092807322740546 1.6779150348156693 2.7262820657342663 7.5493878275156048 3.1557033248245698 3.8007816094905138 1.6477128341794016 4.3826781660318357 2.0922289658337831 1.759591046720743 2.7119455188512802 6.2659590095281601 1.3077703118324278 2.1769451703876257
leaf_count=214 38 23 31 51 43 70 49 41 21 30 14 31 16 28
internal_value=0.000259175 0.0085891 0.00432327 -0.00297541 -0.0150832 0.0184433 -0.0145864 -0.00959722 0 0.0190918 -0.0236763 0.00408196 0.022232 0.0437507
internal_weight=52.2772 36.3178 31.2048 26.3016 16.9711 9.33052 15.9594 10.0501 5.52974 3.43751 7.09462 9.42166 2.95548 4.90323
internal_count=700 542 328 269 125 144 158 120 74 53 55 74 65 59
cat_boundaries=0 1 2 3 4 5 6
cat_threshold=7 1 1 2 2 2
is_linear=0
shrinkage=0.05


Tree=51
num_leaves=15
num_cat=4
split_feature=5 7 12 1 11 8 15 0 0 11 0 11 11 11
split_gain=3.62041 3.21795 2.99171 3.05545 3.44312 2.59088 2.41605 1.63927 4.81457 1.64226 1.2078 2.22643 1.19446 0.765093
threshold=0 1 2 3 9724.0000000000018 3.5000000000000004 5479.0000000000009 60.500000000000007 33.500000000000007 11408.000000000002 29.500000000000004 10598.200000000003 14605.500000000002 10773.500000000002
decision_type=1 1 1 1 2 2 2 2 2 2 2 2 2 2
left_child=5 10 -3 12 -5 7 -7 8 -1 -10 11 -2 13 -4
right_child=1 2 3 4 -6 6 -8 -9 9 -11 -12 -13 -14 -15
leaf_value=-0.056306452691097568 0.045299037365424975 0.04037111008465491 -0.014718862122365223 -0.037288282388164194 0.034837847570835516 -0.032227159967101217 0.036196526733585165 -0.061409297395264399 -0.021595180906234447 0.049145377440687532 0.051108668695556941 -0.013596721813437518 -0.0013263827433181346 -0.050840332441342763
leaf_weight=4.0703792888671178 3.146597646176815 3.8881054371595383 3.1792133823037148 2.1029227972030675 6.1530098952353001 2.1335465461015692 2.8828328112140298 4.1755717769265175 1.1052565854042771 2.1426888555288315 5.2529817037284374 2.9201632030308247 4.2014170046895742 4.0649688486009836
leaf_count=36 32 39 41 13 70 31 65 21 19 49 199 21 30 34
internal_value=0.000259472 0.00889969 0.000674659 -0.00707126 0.0156414 -0.0143629 0.00605649 -0.0360698 -0.020305 0.0236533 0.0332396 0.0163787 -0.023881 -0.036085
internal_weight=51.4197 34.9094 23.5896 19.7015 8.25593 16.5103 5.01638 11.4939 7.31832 3.24795 11.3197 6.06676 11.4456 7.24418
internal_count=700 479 227 188 83 221 96 125 104 68 252 53 105 75
cat_boundaries=0 1 2 3 4
cat_threshold=8 2 2 2
is_linear=0
shrinkage=0.05


Tree=52
num_leaves=15
num_cat=3
split_feature=9 7 0 7 0 15 0 0 11 11 11 11 0 0
split_gain=3.42341 2.12694 1.79457 1.78067 1.85572 1.4183 1.23303 1.85831 1.22979 1.15826 1.14654 1.67125 1.02737 0.950367
threshold=0 1 20.500000000000004 2 29.500000000000004 5479.0000000000009 63.500000000000007 33.500000000000007 10135.500000000002 65250.000000000007 10850.700000000003 14339.500000000002 60.500000000000007 29.500000000000004
decision_type=1 1 2 1 2 2 2 2 2 2 2 2 2 2
left_child=3 2 -2 -1 5 -5 7 8 -3 -6 -9 -12 13 -4
right_child=1 6 12 4 9 -7 -8 10 -10 -11 11 -13 -14 -15
leaf_value=-0.016878385915391893 -0.037445608097854056 -0.011786085801604101 0.0063341475939405131 -0.014344504583940904 0.042947481048701219 0.027732084232848831 -0.048384955253706882 0.046642571586577336 -0.057318377869165417 0 -0.024514982916158844 0.034565605463122338 -0.009758672801128819 0.047514449688768182
leaf_weight=2.9533261768519878 2.032352928072215 3.5097500309348124 3.6679226476699096 4.3089539781212869 9.6876042159274203 3.4930395781993866 4.1141299083828917 1.1163329500705002 3.1191468499600887 1.6098065972328175 3.9722701348364353 1.5579140111804006 2.9451017435640097 2.6146927215158939
leaf_count=32 12 28 33 33 217 26 21 21 26 19 51 21 32 128
internal_value=0.000236972 -0.00976689 0.0033706 0.0123007 0.0235443 0.00397345 -0.0241146 -0.0159138 -0.0344872 0.0364678 0.00210599 -0.00666494 0.0132013 0.0247318
internal_weight=50.7023 28.6496 11.2601 22.0527 19.0994 7.80199 17.3895 13.2754 6.6289 11.2974 6.64652 5.53018 9.22772 6.28262
internal_count=700 373 205 327 295 59 168 147 54 236 93 72 193 161
cat_boundaries=0 1 2 3
cat_threshold=396 2 4
is_linear=0
shrinkage=0.05


Tree=53
num_leaves=15
num_cat=6
split_feature=6 4 12 9 7 11 0 11 17 0 0 0 7 11
split_gain=3.33547 3.25428 3.34828 2.46725 2.47978 1.81411 1.72935 1.68817 1.18173 1.30481 1.11794 2.11807 1.20412 0.805791
threshold=0 1 2 3 4 14605.500000000002 23.500000000000004 10621.000000000002 3.5000000000000004 43.500000000000007 63.500000000000007 49.500000000000007 5 12789.000000000002
decision_type=1 1 1 1 1 2 2 2 2 2 2 2 1 2
left_child=1 -1 3 4 -3 -6 -2 -8 -9 -10 11 12 -5 -4
right_child=6 2 13 10 5 -7 7 8 9 -11 -12 -13 -14 -15
leaf_value=0.049297728303654323 -0.056046590904132457 0.052276733667165759 0.061843962756882656 -0.0014483266548283476 -0.015170913381214802 0.02983781032889235 0.020023973013504295 -0.051218391499726061 -0.039057501566209935 0.0045846537290440432 -0.046966981595799547 0.024778870740829698 -0.046360944422456939 0.015517504406721214
leaf_weight=4.6813825815916079 3.1968461126089087 3.6836780840530992 2.5991141470149151 2.8399765305221081 5.1874223090708238 3.7330686822533607 2.6246557123959056 2.7964859735220653 2.5685130134224892 4.2825407944619656 3.6616413891315451 2.4701700182631612 3.7444794252514857 2.1124316425994039
leaf_count=214 21 77 31 21 40 23 35 26 24 52 25 55 28 28
internal_value=0.000213526 0.00844484 0.0045709 -0.00249898 0.0102163 0.00323212 -0.0141853 -0.0139771 -0.0238508 -0.0113843 -0.0131695 -0.0129777 -0.0280489 0.0428668
internal_weight=50.1824 34.7134 30.032 25.3204 12.6042 8.92049 15.469 12.2722 9.64754 6.85105 12.7163 9.05463 6.58446 4.71155
internal_count=700 542 328 269 140 63 158 137 102 76 129 104 49 59
cat_boundaries=0 1 2 3 4 5 6
cat_threshold=7 1 1 156 2 2
is_linear=0
shrinkage=0.05


Tree=54
num_leaves=15
num_cat=4
split_feature=5 7 12 1 11 8 15 0 0 11 0 11 11 14
split_gain=3.24789 2.85693 2.66818 2.85972 3.06705 2.37665 2.15045 1.31044 4.26597 1.57077 1.16047 2.00164 0.979894 0.765536
threshold=0 1 2 3 9724.0000000000018 3.5000000000000004 5479.0000000000009 60.500000000000007 33.500000000000007 11408.000000000002 29.500000000000004 10598.200000000003 14605.500000000002 7.5000000000000009
decision_type=1 1 1 1 2 2 2 2 2 2 2 2 2 2
left_child=5 10 -3 12 -5 7 -7 8 -1 -10 11 -2 -4 -6
right_child=1 2 3 4 13 6 -8 -9 9 -11 -12 -13 -14 -15
leaf_value=-0.054845358348274864 0.044109718330270477 0.038999683558107422 -0.034157480580493636 -0.035135137442200197 0.046051690201831849 -0.029982893445382922 0.035672959005797332 -0.058109132486442672 -0.021899818058258545 0.048613543554798348 0.050910859060875141 -0.012474900710974894 -0.0021412593137543311 0.0039955391780608848
leaf_weight=3.8990012072026712 2.9982399176806211 3.761200156994164 7.0647787321358919 2.0148615837097212 4.1320440899580717 2.0980319632217297 2.709562886506319 4.0858359038829803 1.0826422218233349 1.9843919929116962 4.7894296525046229 2.8869900889694691 4.1308429725468159 1.84931019321084
leaf_count=36 32 39 75 13 46 31 65 21 19 49 199 21 30 24
internal_value=0.000215502 0.00854141 0.000874975 -0.00650092 0.0158562 -0.0137834 0.00597483 -0.0351629 -0.0203645 0.0222385 0.0323282 0.0157722 -0.0229107 0.0341505
internal_weight=49.4872 33.6277 22.953 19.1918 7.99622 15.8595 4.80759 11.0519 6.96604 3.06703 10.6747 5.88523 11.1956 5.98135
internal_count=700 479 227 188 83 221 96 125 104 68 252 53 105 70
cat_boundaries=0 1 2 3 4
cat_threshold=8 2 2 2
is_linear=0
shrinkage=0.05


Tree=55
num_leaves=15
num_cat=6
split_feature=6 4 12 7 8 11 0 7 0 11 1 16 11 11
split_gain=3.08691 3.04002 3.05298 2.27866 3.19595 2.12161 1.61802 1.52539 1.15007 1.09218 0.970229 0.935614 0.749577 0.70584
threshold=0 1 2 3 3.5000000000000004 11827.000000000002 29.500000000000004 4 60.500000000000007 15753.000000000002 5 2031.5000000000002 13954.500000000002 12789.000000000002
decision_type=1 1 1 1 2 2 2 1 2 2 1 2 2 2
left_child=1 -1 3 -3 5 10 -2 11 -9 12 -5 -8 -7 -4
right_child=6 2 13 4 -6 9 7 8 -10 -11 -12 -13 -14 -15
leaf_value=0.049103209123886028 -0.044059807011586329 -0.042098148324296335 0.060321521025424041 -0.04129707268691013 0.040960159439014127 0.0055483784539693071 0.048303032653984918 -0.0048003838610090124 -0.047954976031927582 -0.010485678132497402 -0.0049928874791928266 -0.0061213401216511894 0.044826433431912838 0.015728441291562329
leaf_weight=4.4031019341200608 5.5581861995160571 3.0417324360460043 2.4746669540181747 4.2236793376505375 4.4152527544647446 3.0930576846003515 1.4081467157229783 4.3731968030333501 2.6021185964345932 3.5423508528620005 3.8721864670515149 1.3260208889842031 2.4002995695918798 2.0686892634257674
leaf_count=214 38 26 31 35 107 29 35 41 14 24 24 30 24 28
internal_value=0.000208609 0.00828313 0.0046291 -0.00219131 0.00337975 -0.00619704 -0.0136486 -0.00937197 -0.022056 0.0100269 -0.0248159 0.0208594 0.0240993 0.0418701
internal_weight=48.8027 33.535 29.1319 24.5886 21.5468 17.1316 15.2677 9.70948 6.97532 9.03571 8.09587 2.73417 5.49336 4.54336
internal_count=700 542 328 269 243 136 158 120 55 77 59 65 53 59
cat_boundaries=0 1 2 3 4 5 6
cat_threshold=7 1 1 4 2 2
is_linear=0
shrinkage=0.05


Tree=56
num_leaves=15
num_cat=4
split_feature=5 7 12 1 11 8 15 0 11 0 11 0 11 11
split_gain=3.02414 2.60496 2.34127 2.5983 2.7866 2.12869 1.96546 1.12731 2.9003 1.08142 1.86392 0.95372 0.859541 0.829046
threshold=0 1 2 3 9724.0000000000018 3.5000000000000004 5479.0000000000009 62.500000000000007 11924.500000000002 29.500000000000004 10598.200000000003 36.500000000000007 14605.500000000002 10135.500000000002
decision_type=1 1 1 1 2 2 2 2 2 2 2 2 2 2
left_child=5 9 -3 12 -5 7 -7 8 13 10 -2 -10 -4 -1
right_child=1 2 3 4 -6 6 -8 -9 11 -11 -12 -13 -14 -15
leaf_value=-0.017594837067795899 0.04358505657627286 0.037443728183454421 -0.032227568393668658 -0.033631845191807841 0.03328807743352926 -0.029153750467807035 0.034621435001256397 -0.061169130923598269 -0.022417342556358105 0.050576665230200872 -0.011512632590739813 0.028475050275177289 -0.0019538754870343771 -0.069528699580805056
leaf_weight=1.6486651077866534 2.9073107335716486 3.6379998894408345 6.9319599345326424 1.9496248811483425 5.8679543789476156 2.0570099679753193 2.5786516601219773 2.974523738026619 1.3011558568105104 4.4452610453590751 2.8560502454638481 2.3246295209974051 4.0902187246829271 2.4964101556688547
leaf_count=26 32 39 75 13 70 31 65 16 16 199 21 42 30 25
internal_value=0.000206286 0.00833933 0.00110213 -0.00581217 0.0157534 -0.0134168 0.00524823 -0.0342752 -0.0226991 0.0317138 0.0156978 0.00875822 -0.0215614 -0.0509514
internal_weight=48.0674 32.6864 22.4778 18.8398 7.81758 15.381 4.63566 10.7454 7.77086 10.2086 5.76336 3.62579 11.0222 4.14508
internal_count=700 479 227 188 83 221 96 125 109 252 53 58 105 51
cat_boundaries=0 1 2 3 4
cat_threshold=8 2 2 2
is_linear=0
shrinkage=0.05


Tree=57
num_leaves=15
num_cat=5
split_feature=9 7 4 7 11 15 0 14 12 0 0 0 14 0
split_gain=2.84313 1.685 1.65669 1.68842 2.03297 1.80346 1.49998 1.30568 1.19524 1.11367 1.48265 1.59082 1.04717 0.893851
threshold=0 1 2 3 9724.0000000000018 5479.0000000000009 20.500000000000004 8.5000000000000018 4 33.500000000000007 60.500000000000007 49.500000000000007 8.5000000000000018 60.500000000000007
decision_type=1 1 1 1 2 2 2 2 1 2 2 2 2 2
left_child=2 6 -1 -4 -5 7 -2 -6 9 -3 11 -11 -7 -8
right_child=1 8 3 4 5 12 13 -9 -10 10 -12 -13 -14 -15
leaf_value=0.050007939559961606 -0.035568085139001136 -0.048333344346996127 -0.026623903177916453 -0.021237503831563521 -0.019096555907857526 0.051508306202625635 0.023727679888392927 0.032700263429050878 0.006017482131698052 -0.015974533676868043 -0.036603810823600591 0.047180015262020203 0.004327940178815398 -0.0092833343327462566
leaf_weight=3.1881157048046589 1.9071131385862834 4.8006283808499584 2.4422627836465836 2.6440879851579728 2.9141966113820654 5.6470753913745284 5.715222077444194 1.9273031996563075 2.7485241331160077 3.0368555653840286 4.5581464022397995 1.3440526090562341 1.8046300271525977 2.8353148549795151
leaf_count=125 12 45 20 25 35 68 161 20 23 49 25 26 34 32
internal_value=0.000180665 -0.00912018 0.0114605 0.0104142 0.0169392 0.025659 0.00277932 0.000755353 -0.0224381 -0.0284941 -0.0168696 0.0029058 0.040953 0.0122226
internal_weight=47.5135 26.9459 20.5677 17.3796 14.9373 12.2932 10.4577 4.8415 16.4882 13.7397 8.93905 4.38091 7.45171 8.55054
internal_count=700 373 327 202 182 157 205 55 168 145 100 75 102 193
cat_boundaries=0 1 2 3 4 5
cat_threshold=396 2 1 4 1
is_linear=0
shrinkage=0.05


Tree=58
num_leaves=15
num_cat=6
split_feature=6 4 5 1 15 7 8 0 8 12 0 0 17 0
split_gain=2.85922 2.79555 2.72979 2.35768 2.25942 2.2538 1.69627 1.49248 1.51371 0.896721 1.01433 0.67533 0.93764 0.663126
threshold=0 1 2 3 5479.0000000000009 4 3.5000000000000004 23.500000000000004 4.5000000000000009 5 60.500000000000007 33.500000000000007 4.5000000000000009 27.500000000000004
decision_type=1 1 1 1 2 1 2 2 2 1 2 2 2 2
left_child=1 -1 4 5 -3 -4 -6 -2 9 -9 11 -11 -13 -5
right_child=7 2 3 13 6 -7 -8 8 -10 10 -12 12 -14 -15
leaf_value=0.048884051726127115 -0.053893175734253486 -0.054248577653979613 0.039189087393409858 0.024222650371933711 -0.023782093586975264 -0.011228832316593287 0.034161454343159647 0.005149796657229205 0.027884003139716642 -0.038621445990847665 -0.058313615070847036 -0.02544189160360362 0.023216001332648801 0.056436917556026381
leaf_weight=4.0875942939892429 2.9548249654471865 3.7660708483308554 3.0060299746692181 4.8616955801844597 3.5293385237455368 7.4946517609059811 1.8146759029477832 2.2133989427238703 1.7060740943998087 2.0630184803158027 2.1610419135540724 2.0333989020437007 1.7120874747633932 3.5719670411199331
leaf_count=214 21 31 62 38 27 56 36 20 39 16 14 21 27 78
internal_value=0.000169494 0.00812028 0.00473377 0.0127044 -0.0120059 0.00296617 -0.00292159 -0.013228 -0.0133725 -0.0209748 -0.028824 -0.016205 -0.00187448 0.038954
internal_weight=46.9759 32.132 28.0444 18.9343 9.11009 10.5007 5.34401 14.8438 11.889 10.1829 7.96955 5.8085 3.74549 8.43366
internal_count=700 542 328 234 94 118 63 158 137 98 78 64 48 116
cat_boundaries=0 1 2 3 4 5 6
cat_threshold=7 1 8 2 2 2
is_linear=0
shrinkage=0.05


Tree=59
num_leaves=15
num_cat=6
split_feature=6 4 5 1 7 15 0 14 11 7 13 11 0 13
split_gain=2.61737 2.68104 2.49141 2.18841 2.09361 2.08305 1.4171 1.34618 0.949944 0.901718 0.842341 0.708269 0.592727 0.40922
threshold=0 1 2 3 4 5479.0000000000009 29.500000000000004 3.5000000000000004 11566.000000000002 5 2012.5000000000002 14605.500000000002 60.500000000000007 2020.5000000000002
decision_type=1 1 1 1 1 2 2 2 2 1 2 2 2 2
left_child=1 -1 5 4 -4 -3 -2 -8 -5 -7 -9 -6 13 -12
right_child=6 2 3 8 11 9 7 10 -10 -11 12 -13 -14 -15
leaf_value=0.048712218303959942 -0.041974863968560538 -0.052347064286296874 0.038408157582983139 0.019841667037408979 -0.022899323215476969 0.015117494401655105 -0.036727885297856241 -0.020136178166009055 0.056877752925840165 -0.02520200416918067 0.047707516486451801 0.0074105075818625592 -0.0029152291794059815 0.00098877772504952274
leaf_weight=3.9019569559022802 5.2816089317202559 3.7127478681504726 2.9180778684094548 4.510144405066967 4.6186872515827417 2.8471901826560497 2.8838205253705365 2.239117918536067 3.7712111352011561 2.4524457827210426 1.5317068574950101 2.8661575652658939 1.7820567693561313 0.98441942874342192
leaf_count=214 38 31 62 35 39 42 29 22 81 21 35 17 17 17
internal_value=0.000171044 0.00784412 0.0045741 0.0122117 0.00284157 -0.0114773 -0.012666 -0.00874477 0.0377813 -0.00273585 0.00321357 -0.0106889 0.0166956 0.0320768
internal_weight=46.3013 31.5986 27.6967 18.6843 10.4029 9.01238 14.7027 9.42112 8.28136 5.29964 6.5373 7.48484 4.29818 2.51613
internal_count=700 542 328 234 118 94 158 120 116 63 91 56 69 52
cat_boundaries=0 1 2 3 4 5 6
